{"learner":{"attributes":{},"feature_names":[],"feature_types":[],"gradient_booster":{"model":{"gbtree_model_param":{"num_trees":"10","size_leaf_vector":"0"},"tree_info":[0,0,0,0,0,0,0,0,0,0],"trees":[{"base_weights":[8.0591816E-1,-9.685693E-1,1.1728632E0,-1.3284972E0,-3.2054788E-1,-5.993422E-2,1.2112358E0,-1.4277289E0,1.7778225E-2,-6.751886E-1,3.744823E-1,-6.5455204E-1,2.0145924E-1,6.3217366E-1,1.285761E0,-1.571136E0,-8.8690376E-1,-6.788935E-1,7.573698E-1,-9.415836E-1,-4.6099596E-2,1.3055643E-1,1.329711E0,-9.727309E-1,-3.1192598E-1,4.565271E-2,9.8642874E-1,2.93973E-1,9.968418E-1,8.763313E-1,1.3660432E0,-1.7171015E0,-1.3735024E0,-1.303487E0,-6.0666615E-1,-1.0636847E0,-2.8546578E-1,1.4378677E-1,1.0902675E0,-1.2133638E0,-7.2258914E-1,-2.9428136E-1,5.6861305E-1,-1.9096301E-1,4.0304583E-1,9.455378E-1,1.5336211E0,-1.2099886E0,-7.5836515E-1,-5.604379E-1,-3.230973E-2,-2.962166E-1,3.7169832E-1,8.3454686E-1,1.4126502E0,-1.926538E-2,7.220494E-1,6.1288536E-1,1.252896E0,6.285496E-1,9.8417693E-1,1.1803179E0,1.4501398E0,-1.7771114E0,-1.5555639E0,-1.5115832E0,-1.1519915E0,-1.4051247E0,-9.745435E-1,-8.560159E-1,-3.0883583E-1,-1.263211E0,-6.237048E-1,-6.7283046E-1,1.1952674E-1,-3.3041E-1,5.4324263E-1,6.066127E-1,1.3028841E0,-1.2764593E0,-7.42888E-1,-9.032013E-1,-4.58643E-1,-5.607855E-1,-2.2535876E-4,2.2363326E-1,9.398769E-1,-4.9322674E-1,1.4523059E-1,2.2864941E-1,6.721684E-1,6.230577E-1,1.0454093E0,1.3634499E0,1.6754807E0,-1.4659404E0,-1.1060572E0,-1.1954738E0,-6.68065E-1,-4.7171423E-1,-1.024304E0,-6.3216645E-1,5.9371926E-2,-2.3740004E-1,-8.037266E-1,4.0484953E-1,-4.0663257E-1,9.131447E-1,1.9897081E-1,9.2242724E-1,1.5411402E0,-3.7556833E-1,1.7900233E-1,5.16765E-1,9.850432E-1,4.62208E-1,7.8711754E-1,1.0881915E0,1.5825057E0,3.4244275E-1,7.778819E-1,8.137962E-1,1.1332644E0,1.260069E0,1.0629259E0,1.4002682E0,1.7667409E0],"categories":[],"categories_nodes":[],"categories_segments":[],"categories_sizes":[],"default_left":[false,false,false,false,false,false,false,false,false,false,false,false,false,false,false,false,false,false,false,false,false,false,false,false,false,false,false,false,false,false,false,false,false,false,false,false,false,false,false,false,false,false,false,false,false,false,false,false,false,false,false,false,false,false,false,false,false,false,false,false,false,false,false,false,false,false,false,false,false,false,false,false,false,false,false,false,false,false,false,false,false,false,false,false,false,false,false,false,false,false,false,false,false,false,false,false,false,false,false,false,false,false,false,false,false,false,false,false,false,false,false,false,false,false,false,false,false,false,false,false,false,false,false,false,false,false,false],"id":0,"left_children":[1,3,5,7,9,11,13,15,17,19,21,23,25,27,29,31,33,35,37,39,41,43,45,47,49,51,53,55,57,59,61,63,65,67,69,71,73,75,77,79,81,83,85,87,89,91,93,95,97,99,101,103,105,107,109,111,113,115,117,119,121,123,125,-1,-1,-1,-1,-1,-1,-1,-1,-1,-1,-1,-1,-1,-1,-1,-1,-1,-1,-1,-1,-1,-1,-1,-1,-1,-1,-1,-1,-1,-1,-1,-1,-1,-1,-1,-1,-1,-1,-1,-1,-1,-1,-1,-1,-1,-1,-1,-1,-1,-1,-1,-1,-1,-1,-1,-1,-1,-1,-1,-1,-1,-1,-1,-1],"loss_changes":[5.636816E7,3.4598822E6,3.3934395E6,1.2740654E6,1.3056471E6,3.365718E5,3.0022352E6,6.8888625E5,3.3733322E5,5.877899E5,4.169981E5,7.208587E4,1.8396784E5,9.7833644E5,2.0259868E6,2.0252558E5,2.1732775E5,5.1036902E4,6.4865855E4,1.4665152E5,1.5918244E5,1.24898945E5,2.8516441E4,1.7436518E4,2.2124305E4,1.3989728E5,1.612547E4,5.518691E5,3.7525734E5,2.7001494E5,8.04868E5,3.9142543E4,9.1220625E4,2.5029135E4,8.265069E4,1.4961303E4,2.6151227E4,2.1157656E4,2.116951E4,3.2637166E4,6.5048047E4,5.8250746E4,3.84361E4,6.645608E4,3.6216125E4,4.0647676E3,5.7386353E3,4.3273647E3,7.108638E3,6.937217E3,8.239546E3,1.8288062E4,1.6575924E4,9.175039E3,4.1210415E3,1.6789208E5,9.388826E4,4.00898E4,1.2431117E5,1.3091994E5,1.7883416E5,1.5036566E5,5.600589E5,0E0,0E0,0E0,0E0,0E0,0E0,0E0,0E0,0E0,0E0,0E0,0E0,0E0,0E0,0E0,0E0,0E0,0E0,0E0,0E0,0E0,0E0,0E0,0E0,0E0,0E0,0E0,0E0,0E0,0E0,0E0,0E0,0E0,0E0,0E0,0E0,0E0,0E0,0E0,0E0,0E0,0E0,0E0,0E0,0E0,0E0,0E0,0E0,0E0,0E0,0E0,0E0,0E0,0E0,0E0,0E0,0E0,0E0,0E0,0E0,0E0,0E0,0E0,0E0],"parents":[2147483647,0,0,1,1,2,2,3,3,4,4,5,5,6,6,7,7,8,8,9,9,10,10,11,11,12,12,13,13,14,14,15,15,16,16,17,17,18,18,19,19,20,20,21,21,22,22,23,23,24,24,25,25,26,26,27,27,28,28,29,29,30,30,31,31,32,32,33,33,34,34,35,35,36,36,37,37,38,38,39,39,40,40,41,41,42,42,43,43,44,44,45,45,46,46,47,47,48,48,49,49,50,50,51,51,52,52,53,53,54,54,55,55,56,56,57,57,58,58,59,59,60,60,61,61,62,62],"right_children":[2,4,6,8,10,12,14,16,18,20,22,24,26,28,30,32,34,36,38,40,42,44,46,48,50,52,54,56,58,60,62,64,66,68,70,72,74,76,78,80,82,84,86,88,90,92,94,96,98,100,102,104,106,108,110,112,114,116,118,120,122,124,126,-1,-1,-1,-1,-1,-1,-1,-1,-1,-1,-1,-1,-1,-1,-1,-1,-1,-1,-1,-1,-1,-1,-1,-1,-1,-1,-1,-1,-1,-1,-1,-1,-1,-1,-1,-1,-1,-1,-1,-1,-1,-1,-1,-1,-1,-1,-1,-1,-1,-1,-1,-1,-1,-1,-1,-1,-1,-1,-1,-1,-1,-1,-1,-1],"split_conditions":[-1.784437E-2,-4.3658412E-1,-4.6244058E-1,-6.6868347E-1,4.0836465E-1,4.8106644E-1,4.8688087E-1,4.1823396E-1,3.8057363E-1,-9.257974E-1,-7.694669E-1,-6.966224E-1,-5.7749176E-1,3.9453006E-1,4.6374407E-1,-6.9449747E-1,-7.561113E-1,-6.9449747E-1,-4.3547705E-1,3.2949573E-1,-6.278672E-1,-9.904028E-1,-5.151515E-1,4.24318E-1,4.3348077E-1,-6.966224E-1,5.309855E-1,-9.387059E-1,-9.823364E-1,-9.9283665E-1,3.769498E-1,-9.592436E-1,-9.754024E-1,4.6558273E-1,-9.8428655E-1,7.6896024E-1,3.1046215E-1,-6.9449747E-1,6.7056525E-1,1.1492304E0,-9.878465E-1,3.3411086E-1,3.2949573E-1,4.4503E-1,4.5512605E-1,4.3135408E-1,7.5068986E-1,7.186347E-1,5.833626E-1,1.2386775E0,4.8688087E-1,2.951076E-2,3.1590264E-2,2.196605E-2,-1.2885484E-1,1.8285829E-1,-7.399078E-1,-9.962246E-1,-6.6868347E-1,4.029431E-1,3.4640312E-1,1.2866042E-2,7.3013955E-1,-5.3313345E-1,-4.666692E-1,-4.5347497E-1,-3.4559745E-1,-4.2153743E-1,-2.9236308E-1,-2.568048E-1,-9.2650756E-2,-3.7896332E-1,-1.8711144E-1,-2.0184915E-1,3.5858024E-2,-9.912301E-2,1.629728E-1,1.8198381E-1,3.9086524E-1,-3.8293782E-1,-2.228664E-1,-2.709604E-1,-1.375929E-1,-1.6823564E-1,-6.760763E-5,6.708998E-2,2.8196308E-1,-1.4796802E-1,4.3569177E-2,6.859483E-2,2.0165052E-1,1.8691732E-1,3.136228E-1,4.09035E-1,5.0264424E-1,-4.397821E-1,-3.3181715E-1,-3.5864216E-1,-2.0041952E-1,-1.4151427E-1,-3.072912E-1,-1.8964994E-1,1.7811578E-2,-7.122002E-2,-2.41118E-1,1.21454865E-1,-1.2198978E-1,2.7394342E-1,5.9691247E-2,2.7672818E-1,4.6234208E-1,-1.126705E-1,5.37007E-2,1.550295E-1,2.9551297E-1,1.3866241E-1,2.3613527E-1,3.2645747E-1,4.7475174E-1,1.0273283E-1,2.3336458E-1,2.4413888E-1,3.3997935E-1,3.7802073E-1,3.188778E-1,4.2008048E-1,5.300223E-1],"split_indices":[1,1,0,6,3,2,1,3,3,6,6,0,6,3,2,1,1,1,6,3,6,6,6,2,2,0,3,6,6,6,3,6,6,3,6,2,3,1,2,5,6,3,3,3,3,3,2,1,1,5,1,9,9,8,6,1,6,6,6,2,3,8,2,0,0,0,0,0,0,0,0,0,0,0,0,0,0,0,0,0,0,0,0,0,0,0,0,0,0,0,0,0,0,0,0,0,0,0,0,0,0,0,0,0,0,0,0,0,0,0,0,0,0,0,0,0,0,0,0,0,0,0,0,0,0,0,0],"split_type":[0,0,0,0,0,0,0,0,0,0,0,0,0,0,0,0,0,0,0,0,0,0,0,0,0,0,0,0,0,0,0,0,0,0,0,0,0,0,0,0,0,0,0,0,0,0,0,0,0,0,0,0,0,0,0,0,0,0,0,0,0,0,0,0,0,0,0,0,0,0,0,0,0,0,0,0,0,0,0,0,0,0,0,0,0,0,0,0,0,0,0,0,0,0,0,0,0,0,0,0,0,0,0,0,0,0,0,0,0,0,0,0,0,0,0,0,0,0,0,0,0,0,0,0,0,0,0],"sum_hessian":[8.656848E7,1.483394E7,7.173454E7,9.536898E6,5.2970415E6,2.1654328E6,6.956911E7,8.882205E6,6.546928E5,3.5073888E6,1.789653E6,6.612408E5,1.504192E6,7.932609E6,6.16365E7,7.020597E6,1.8616085E6,3.3712856E5,3.1756428E5,2.4639852E6,1.0434034E6,1.4256119E6,3.6404112E5,3.4285116E5,3.1838966E5,1.2550762E6,2.4911573E5,4.115662E6,3.816947E6,1.010455E7,5.153195E7,4.0381495E6,2.9824472E6,7.486741E5,1.1129344E6,1.7043412E5,1.6669442E5,1.1169472E5,2.0586956E5,1.0994824E6,1.3645029E6,7.433048E5,3.0009856E5,6.539704E5,7.716415E5,1.2622842E5,2.3781272E5,1.6273408E5,1.8011708E5,1.6857012E5,1.4981953E5,6.1267106E5,6.4240525E5,1.8366912E5,6.544661E4,2.376613E6,1.7390491E6,1.5270781E6,2.2898688E6,3.0642522E6,7.0402975E6,1.6061173E7,3.547078E7,2.9443392E6,1.0938102E6,1.837204E6,1.1452434E6,5.719488E5,1.7672534E5,6.057696E5,5.071648E5,1.1725727E5,5.317685E4,8.5201125E4,8.1493305E4,5.10697E4,6.062502E4,6.286644E4,1.4300312E5,9.6946544E5,1.3001694E5,8.1014044E5,5.5436244E5,3.8991888E5,3.5338594E5,1.5555647E5,1.4454208E5,3.4436212E5,3.0960828E5,4.682249E5,3.0341662E5,2.9850365E4,9.6378055E4,1.0812246E5,1.2969025E5,4.6992555E4,1.1574152E5,3.0836605E4,1.4928047E5,1.4150623E5,2.7063887E4,1.9861748E4,1.2995777E5,5.490426E5,6.3628406E4,6.161617E5,2.624351E4,1.6345519E5,2.0213941E4,1.3593196E4,5.1853414E4,8.4967606E5,1.5269369E6,9.7668406E5,7.6236506E5,8.188949E5,7.081833E5,1.5268921E6,7.629766E5,1.0508758E6,2.0133764E6,3.285526E6,3.7547715E6,9.56387E6,6.4973025E6,3.0643738E7,4.827041E6],"tree_param":{"num_deleted":"0","num_feature":"10","num_nodes":"127","size_leaf_vector":"0"}},{"base_weights":[5.873597E-1,-7.833693E-1,8.406223E-1,-9.2618454E-1,-1.5231801E-2,4.2460376E-1,9.2427206E-1,-1.1525292E0,-5.610243E-1,-2.238853E-1,9.340627E-1,5.8173373E-2,6.3068086E-1,2.4383943E-1,9.6663064E-1,-1.2170058E0,-6.6057605E-1,-7.014638E-1,5.082632E-2,-6.743259E-1,1.2698746E-1,3.883282E-1,1.0424387E0,-1.711233E-1,4.4649312E-1,4.002666E-1,8.9583945E-1,-2.3982263E-1,4.0815845E-1,7.101691E-1,1.0406203E0,-1.3120013E0,-1.0369679E0,-9.2755556E-1,-4.4060874E-1,-9.1138417E-1,-4.5633432E-1,-4.174692E-1,2.2840191E-1,-9.6482927E-1,-5.0173914E-1,-1.4566419E-1,2.6885408E-1,1.3929284E-1,1.1738168E0,8.700897E-1,1.2445117E0,-4.1885933E-1,7.014797E-2,2.815801E-1,7.2362393E-1,1.4346184E-1,5.267582E-1,7.6196915E-1,1.1699969E0,-3.66168E-1,4.5038313E-1,5.369246E-2,5.817359E-1,5.261007E-1,7.9752105E-1,8.340516E-1,1.0958794E0,-1.3948871E0,-1.2261927E0,-1.2549477E0,-9.2737484E-1,-1.0247014E0,-3.8743353E-1,-6.192326E-1,1.9761445E-2,-1.0473897E0,-7.302096E-1,-6.0764605E-1,-1.8246058E-1,-6.777477E-1,1.1125974E-2,3.713845E-2,6.648335E-1,-1.1257893E0,-8.388462E-1,-7.0483303E-1,-3.380441E-1,3.0264376E-2,-3.8566682E-1,-9.9942863E-1,2.9557914E-1,-4.186269E-1,3.6263046E-1,-1.2880223E0,1.2126195E0,1.3755272E-2,8.961245E-1,3.688679E-1,1.2681161E0,-6.1640745E-1,-2.1228375E-1,-9.461985E-2,2.7331695E-1,5.238512E-2,4.7230008E-1,5.0068325E-1,9.967541E-1,2.0411901E-2,4.876474E-1,-1.6037937E-1,5.6500477E-1,-4.8980843E-2,8.057866E-1,8.4830695E-1,1.2400175E0,-6.710776E-1,-2.205319E-1,1.2523133E-1,7.3426574E-1,-3.020529E-1,1.7131372E-1,4.6621975E-1,9.422547E-1,3.386629E-1,6.449198E-1,5.961435E-1,8.668148E-1,7.9793817E-1,1.1500803E0,1.0582091E0,1.3640144E0],"categories":[],"categories_nodes":[],"categories_segments":[],"categories_sizes":[],"default_left":[false,false,false,false,false,false,false,false,false,false,false,false,false,false,false,false,false,false,false,false,false,false,false,false,false,false,false,false,false,false,false,false,false,false,false,false,false,false,false,false,false,false,false,false,false,false,false,false,false,false,false,false,false,false,false,false,false,false,false,false,false,false,false,false,false,false,false,false,false,false,false,false,false,false,false,false,false,false,false,false,false,false,false,false,false,false,false,false,false,false,false,false,false,false,false,false,false,false,false,false,false,false,false,false,false,false,false,false,false,false,false,false,false,false,false,false,false,false,false,false,false,false,false,false,false,false,false],"id":1,"left_children":[1,3,5,7,9,11,13,15,17,19,21,23,25,27,29,31,33,35,37,39,41,43,45,47,49,51,53,55,57,59,61,63,65,67,69,71,73,75,77,79,81,83,85,87,89,91,93,95,97,99,101,103,105,107,109,111,113,115,117,119,121,123,125,-1,-1,-1,-1,-1,-1,-1,-1,-1,-1,-1,-1,-1,-1,-1,-1,-1,-1,-1,-1,-1,-1,-1,-1,-1,-1,-1,-1,-1,-1,-1,-1,-1,-1,-1,-1,-1,-1,-1,-1,-1,-1,-1,-1,-1,-1,-1,-1,-1,-1,-1,-1,-1,-1,-1,-1,-1,-1,-1,-1,-1,-1,-1,-1],"loss_changes":[2.9021148E7,1.4301869E6,2.455484E6,9.0860644E5,4.0484153E5,8.919982E5,1.6932344E6,2.1526403E5,3.614674E5,2.648242E5,2.1782178E4,3.7859838E5,4.6192112E5,2.7362094E5,1.0494368E6,1.02617664E5,4.6181965E4,1.7605308E5,6.530445E4,3.678499E4,3.643298E4,1.1936667E4,1.0700342E4,1.5979277E5,7.214547E4,1.3140622E5,1.2901375E5,7.6134945E4,1.5811273E5,1.9910312E5,4.8994262E5,2.7933344E4,4.9507207E4,1.8638984E4,3.5455637E4,4.5412734E4,6.540531E4,2.4085889E4,4.75293E4,5.543881E3,1.5301389E4,1.3611188E4,2.0999623E4,5.7735527E3,1.4047843E3,3.6972278E3,2.9229072E3,5.38274E4,4.5338418E4,4.3260508E4,3.5860188E4,5.6539617E4,7.1229016E4,8.392803E4,2.597736E4,3.2770184E4,1.2469366E4,3.5346707E4,7.1840914E4,8.875649E4,1.171836E5,1.0338507E5,3.4204056E5,0E0,0E0,0E0,0E0,0E0,0E0,0E0,0E0,0E0,0E0,0E0,0E0,0E0,0E0,0E0,0E0,0E0,0E0,0E0,0E0,0E0,0E0,0E0,0E0,0E0,0E0,0E0,0E0,0E0,0E0,0E0,0E0,0E0,0E0,0E0,0E0,0E0,0E0,0E0,0E0,0E0,0E0,0E0,0E0,0E0,0E0,0E0,0E0,0E0,0E0,0E0,0E0,0E0,0E0,0E0,0E0,0E0,0E0,0E0,0E0,0E0,0E0,0E0,0E0],"parents":[2147483647,0,0,1,1,2,2,3,3,4,4,5,5,6,6,7,7,8,8,9,9,10,10,11,11,12,12,13,13,14,14,15,15,16,16,17,17,18,18,19,19,20,20,21,21,22,22,23,23,24,24,25,25,26,26,27,27,28,28,29,29,30,30,31,31,32,32,33,33,34,34,35,35,36,36,37,37,38,38,39,39,40,40,41,41,42,42,43,43,44,44,45,45,46,46,47,47,48,48,49,49,50,50,51,51,52,52,53,53,54,54,55,55,56,56,57,57,58,58,59,59,60,60,61,61,62,62],"right_children":[2,4,6,8,10,12,14,16,18,20,22,24,26,28,30,32,34,36,38,40,42,44,46,48,50,52,54,56,58,60,62,64,66,68,70,72,74,76,78,80,82,84,86,88,90,92,94,96,98,100,102,104,106,108,110,112,114,116,118,120,122,124,126,-1,-1,-1,-1,-1,-1,-1,-1,-1,-1,-1,-1,-1,-1,-1,-1,-1,-1,-1,-1,-1,-1,-1,-1,-1,-1,-1,-1,-1,-1,-1,-1,-1,-1,-1,-1,-1,-1,-1,-1,-1,-1,-1,-1,-1,-1,-1,-1,-1,-1,-1,-1,-1,-1,-1,-1,-1,-1,-1,-1,-1,-1,-1,-1],"split_conditions":[-1.2212022E-1,4.4066975E-1,5.788938E-1,-5.2478105E-1,-6.7284214E-1,3.5779786E-1,-8.419578E-2,-8.3695817E-1,-8.659582E-1,-6.1066234E-1,-7.5317544E-1,-9.093611E-1,-9.591589E-1,-6.9868827E-1,4.8542115E-1,3.7265906E-1,3.243407E-1,3.5779786E-1,2.998324E-1,-8.108795E-1,-9.946905E-1,5.7471305E-1,7.286253E-1,2.661855E-1,7.286253E-1,1.814517E-1,-5.850237E-1,6.4837253E-1,4.952705E-1,4.1328576E-1,3.4600025E-1,-7.5317544E-1,-8.108795E-1,9.1735965E-1,-5.232726E-1,-9.824704E-1,-9.804698E-1,7.286253E-1,-5.232726E-1,4.582514E-1,-9.9049485E-1,5.218881E-1,-6.9868827E-1,-8.5989124E-1,-3.6069968E-1,-4.7051927E-1,-4.7051927E-1,-9.8780364E-1,3.2023653E-1,3.049147E-1,-5.850237E-1,4.5102656E-1,-2.58368E-1,-2.58368E-1,5.763827E-1,4.69381E-1,-7.116443E-1,4.019111E-1,-6.7284214E-1,-9.86238E-1,-9.9558085E-1,9.8779345E-1,5.059378E-1,-4.1846615E-1,-3.678578E-1,-3.764843E-1,-2.7821246E-1,-3.0741042E-1,-1.1623006E-1,-1.8576978E-1,5.928434E-3,-3.1421694E-1,-2.1906288E-1,-1.8229382E-1,-5.4738175E-2,-2.0332433E-1,3.3377924E-3,1.1141536E-2,1.9945006E-1,-3.377368E-1,-2.5165388E-1,-2.1144992E-1,-1.01413235E-1,9.079313E-3,-1.1570005E-1,-2.998286E-1,8.867374E-2,-1.2558807E-1,1.0878914E-1,-3.864067E-1,3.6378586E-1,4.126582E-3,2.6883736E-1,1.10660374E-1,3.8043484E-1,-1.8492225E-1,-6.368513E-2,-2.8385956E-2,8.1995085E-2,1.5715538E-2,1.4169003E-1,1.5020499E-1,2.9902625E-1,6.1235707E-3,1.4629424E-1,-4.811381E-2,1.6950144E-1,-1.4694254E-2,2.41736E-1,2.544921E-1,3.7200528E-1,-2.0132329E-1,-6.615957E-2,3.75694E-2,2.2027974E-1,-9.061587E-2,5.1394116E-2,1.3986593E-1,2.8267643E-1,1.01598874E-1,1.9347595E-1,1.7884305E-1,2.6004446E-1,2.3938146E-1,3.450241E-1,3.1746274E-1,4.0920433E-1],"split_indices":[1,3,1,1,6,3,0,6,6,1,1,6,6,0,2,3,3,3,3,1,6,3,2,1,2,1,6,2,2,2,3,1,1,2,6,6,6,2,6,3,6,2,0,1,6,0,0,6,3,3,6,3,0,0,2,2,6,2,6,6,6,2,3,0,0,0,0,0,0,0,0,0,0,0,0,0,0,0,0,0,0,0,0,0,0,0,0,0,0,0,0,0,0,0,0,0,0,0,0,0,0,0,0,0,0,0,0,0,0,0,0,0,0,0,0,0,0,0,0,0,0,0,0,0,0,0,0],"split_type":[0,0,0,0,0,0,0,0,0,0,0,0,0,0,0,0,0,0,0,0,0,0,0,0,0,0,0,0,0,0,0,0,0,0,0,0,0,0,0,0,0,0,0,0,0,0,0,0,0,0,0,0,0,0,0,0,0,0,0,0,0,0,0,0,0,0,0,0,0,0,0,0,0,0,0,0,0,0,0,0,0,0,0,0,0,0,0,0,0,0,0,0,0,0,0,0,0,0,0,0,0,0,0,0,0,0,0,0,0,0,0,0,0,0,0,0,0,0,0,0,0,0,0,0,0,0,0],"sum_hessian":[8.359725E7,1.3037046E7,7.05602E7,1.0993154E7,2.0438921E6,1.1812525E7,5.8747676E7,6.786523E6,4.206631E6,1.6755989E6,3.682933E5,4.251981E6,7.560544E6,3.4428585E6,5.5304816E7,6.00013E6,7.8639294E5,3.4213262E6,7.853049E5,7.3369756E5,9.419013E5,6.102124E4,3.0727206E5,2.6733882E6,1.5785929E6,4.0453058E6,3.515238E6,8.730611E5,2.5697975E6,1.2383031E7,4.2921784E7,3.9277032E6,2.0724265E6,3.5523394E5,4.3115903E5,1.8430229E6,1.5783034E6,2.159111E5,5.693938E5,2.734364E5,4.6026116E5,3.223606E5,6.195407E5,4.633282E4,1.4688418E4,1.6583553E5,1.4143655E5,1.3190224E6,1.354366E6,9.8966944E5,5.8892344E5,1.3349918E6,2.710314E6,2.3619218E6,1.1533162E6,7.379723E5,1.350888E5,8.4473944E5,1.725058E6,3.985268E6,8.397763E6,9.0587E6,3.3863084E7,1.997871E6,1.9298322E6,6.9334925E5,1.3790772E6,3.0108094E5,5.4152996E4,3.1063294E5,1.2052608E5,1.0527392E6,7.9028356E5,1.0166282E6,5.616752E5,1.3433262E5,8.157848E4,3.958959E5,1.7349788E5,1.20049445E5,1.5338695E5,2.0540945E5,2.548517E5,1.8601058E5,1.3635002E5,1.2784705E4,6.06756E5,1.3244888E4,3.308793E4,2.274222E2,1.4460995E4,4.8931133E3,1.6094242E5,3.7130042E3,1.3772353E5,6.7424256E5,6.447798E5,7.478601E5,6.065059E5,4.4949575E5,5.401737E5,3.2425516E5,2.6466828E5,9.8341256E5,3.515792E5,1.4290388E5,2.5674102E6,1.2107783E5,2.240844E6,2.0616481E5,9.4715144E5,2.3854381E5,4.9942853E5,6.2968156E4,7.212065E4,2.098989E5,6.348405E5,1.3064518E6,4.1860625E5,1.5461742E6,2.4390938E6,2.1498885E6,6.247874E6,8.1297E6,9.2899994E5,2.9691698E7,4.171387E6],"tree_param":{"num_deleted":"0","num_feature":"10","num_nodes":"127","size_leaf_vector":"0"}},{"base_weights":[4.4612566E-1,-4.9609843E-1,6.624135E-1,-8.1899333E-1,-1.7134303E-1,1.7319791E-1,7.028563E-1,-9.235397E-1,-3.1901518E-1,-4.008087E-1,1.7714594E-1,-8.632007E-2,3.518577E-1,5.652379E-1,8.4031796E-1,-1.0202981E0,-6.490439E-1,-4.353045E-1,6.544323E-1,-4.9750838E-1,1.689688E-1,4.137464E-2,7.3529756E-1,-3.448836E-1,1.0103825E-1,-5.534396E-2,4.4521132E-1,3.2473642E-1,6.5440464E-1,6.127436E-1,9.3222874E-1,-1.1237653E0,-8.9863163E-1,-8.142336E-1,-4.096323E-1,-6.567138E-1,-2.4735256E-1,4.873258E-1,9.1038394E-1,-6.693475E-1,-3.0974695E-1,-6.454982E-2,4.3247688E-1,-2.143677E-1,1.547477E-1,4.9684584E-1,9.021429E-1,-2.7495855E-1,-7.5024366E-1,-1.2878399E-1,2.2646216E-1,-1.7220525E-1,3.732431E-1,3.6360717E-1,7.8476405E-1,5.7393745E-2,4.6775198E-1,4.6203834E-1,7.1304697E-1,4.31229E-1,6.956384E-1,8.882499E-1,1.176392E0,-1.1756924E0,-1.0056156E0,-9.97512E-1,-6.8438584E-1,-8.9583886E-1,-3.8270068E-1,-6.5729785E-1,-1.8809067E-1,-8.9744085E-1,-5.4374033E-1,-5.2350295E-1,-1.1669102E-1,-1.3496473E0,5.1605403E-1,1.051142E0,6.249254E-1,-2.5538343E-1,-7.293531E-1,-5.7448655E-1,-1.9437714E-1,-1.0023226E0,-1.895727E-3,2.1344903E-1,6.174205E-1,-3.410791E-1,1.7955032E-1,-9.968508E-2,2.71134E-1,-3.5804668E-1,5.255921E-1,7.5091463E-1,1.0549184E0,-5.744818E-1,-1.8131794E-1,-8.587036E-1,-5.7354975E-1,-3.690248E-1,1.358824E-2,2.8403324E-1,-1.6338454E-1,-1.3641368E-1,-7.0265883E-1,1.3120744E-1,5.601621E-1,2.4665278E-1,4.8069692E-1,6.216191E-1,9.7912604E-1,-9.985017E-2,2.084299E-1,2.622657E-1,5.6451106E-1,2.6682088E-1,5.1062864E-1,5.795228E-1,7.602574E-1,4.6173668E-1,8.090125E-2,5.599693E-1,8.256038E-1,9.1817254E-1,7.326093E-1,1.1000018E0,1.2512918E0],"categories":[],"categories_nodes":[],"categories_segments":[],"categories_sizes":[],"default_left":[false,false,false,false,false,false,false,false,false,false,false,false,false,false,false,false,false,false,false,false,false,false,false,false,false,false,false,false,false,false,false,false,false,false,false,false,false,false,false,false,false,false,false,false,false,false,false,false,false,false,false,false,false,false,false,false,false,false,false,false,false,false,false,false,false,false,false,false,false,false,false,false,false,false,false,false,false,false,false,false,false,false,false,false,false,false,false,false,false,false,false,false,false,false,false,false,false,false,false,false,false,false,false,false,false,false,false,false,false,false,false,false,false,false,false,false,false,false,false,false,false,false,false,false,false,false,false],"id":2,"left_children":[1,3,5,7,9,11,13,15,17,19,21,23,25,27,29,31,33,35,37,39,41,43,45,47,49,51,53,55,57,59,61,63,65,67,69,71,73,75,77,79,81,83,85,87,89,91,93,95,97,99,101,103,105,107,109,111,113,115,117,119,121,123,125,-1,-1,-1,-1,-1,-1,-1,-1,-1,-1,-1,-1,-1,-1,-1,-1,-1,-1,-1,-1,-1,-1,-1,-1,-1,-1,-1,-1,-1,-1,-1,-1,-1,-1,-1,-1,-1,-1,-1,-1,-1,-1,-1,-1,-1,-1,-1,-1,-1,-1,-1,-1,-1,-1,-1,-1,-1,-1,-1,-1,-1,-1,-1,-1],"loss_changes":[1.5929185E7,1.5302289E6,1.2577725E6,3.82485E5,5.817901E5,2.2506112E5,1.1107682E6,1.6073648E5,1.4325292E5,2.4170488E5,2.1889898E5,9.587892E4,1.09285875E5,6.2922875E5,6.144293E5,5.6327684E4,6.237863E4,4.704166E4,5.775474E3,1.210048E5,3.9166156E4,6.736549E4,2.2484654E4,2.35704E4,3.3079914E4,2.68543E4,6.480349E4,3.0343497E5,2.4147281E5,1.2715593E5,2.246869E5,1.4834668E4,4.356468E4,3.28666E4,3.533348E4,1.4114559E4,2.2060936E4,4.312419E3,2.1425798E3,4.8642223E4,5.473779E4,1.9827025E4,1.2113542E4,3.5620086E4,4.7669492E4,5.7178423E3,7.6815303E3,1.9891951E4,2.3440852E3,1.3858476E4,1.6663027E4,7.998566E3,5.196945E3,2.5821291E4,1.436861E4,6.56885E4,1.0279998E5,4.7437164E4,1.034106E5,2.8316049E4,1.02291586E5,8.257509E4,1.8271621E4,0E0,0E0,0E0,0E0,0E0,0E0,0E0,0E0,0E0,0E0,0E0,0E0,0E0,0E0,0E0,0E0,0E0,0E0,0E0,0E0,0E0,0E0,0E0,0E0,0E0,0E0,0E0,0E0,0E0,0E0,0E0,0E0,0E0,0E0,0E0,0E0,0E0,0E0,0E0,0E0,0E0,0E0,0E0,0E0,0E0,0E0,0E0,0E0,0E0,0E0,0E0,0E0,0E0,0E0,0E0,0E0,0E0,0E0,0E0,0E0,0E0,0E0,0E0,0E0],"parents":[2147483647,0,0,1,1,2,2,3,3,4,4,5,5,6,6,7,7,8,8,9,9,10,10,11,11,12,12,13,13,14,14,15,15,16,16,17,17,18,18,19,19,20,20,21,21,22,22,23,23,24,24,25,25,26,26,27,27,28,28,29,29,30,30,31,31,32,32,33,33,34,34,35,35,36,36,37,37,38,38,39,39,40,40,41,41,42,42,43,43,44,44,45,45,46,46,47,47,48,48,49,49,50,50,51,51,52,52,53,53,54,54,55,55,56,56,57,57,58,58,59,59,60,60,61,61,62,62],"right_children":[2,4,6,8,10,12,14,16,18,20,22,24,26,28,30,32,34,36,38,40,42,44,46,48,50,52,54,56,58,60,62,64,66,68,70,72,74,76,78,80,82,84,86,88,90,92,94,96,98,100,102,104,106,108,110,112,114,116,118,120,122,124,126,-1,-1,-1,-1,-1,-1,-1,-1,-1,-1,-1,-1,-1,-1,-1,-1,-1,-1,-1,-1,-1,-1,-1,-1,-1,-1,-1,-1,-1,-1,-1,-1,-1,-1,-1,-1,-1,-1,-1,-1,-1,-1,-1,-1,-1,-1,-1,-1,-1,-1,-1,-1,-1,-1,-1,-1,-1,-1,-1,-1,-1,-1,-1,-1],"split_conditions":[7.9552755E-2,-5.117911E-1,6.0096595E-2,4.332484E-1,3.9631566E-1,5.078258E-1,4.032437E-1,-9.3983835E-1,-5.376758E-1,-7.781464E-1,-8.0058676E-1,-4.896782E-1,-7.09931E-1,7.530629E-1,-9.893007E-1,3.5286498E-1,3.4901783E-1,-7.447406E-1,9.997486E-1,-2.2668421E-1,6.7980796E-1,-3.310351E-1,-5.376758E-1,2.2848768E-2,4.3112725E-1,-6.839905E-1,-5.376758E-1,-9.82726E-1,4.4647455E-1,8.092489E-1,7.653824E-1,-6.7076916E-1,-6.7076916E-1,-5.376758E-1,-7.447406E-1,-8.5767543E-1,-9.9569225E-1,-7.09931E-1,2.562097E-2,-1.0889753E0,3.043186E-1,-2.819073E-1,-5.376758E-1,4.608601E-1,-9.963351E-1,-4.896782E-1,5.0223476E-1,4.11373E-1,9.4231844E-1,8.221269E-1,2.1159578E-2,3.162608E-2,9.98793E-1,-2.819073E-1,4.635628E-1,7.3279965E-1,3.0975968E-1,-9.9695396E-1,3.0975968E-1,2.2023674E-2,5.109923E-1,1.6607622E-2,5.6708586E-1,-3.5270774E-1,-3.0168468E-1,-2.992536E-1,-2.0531575E-1,-2.6875168E-1,-1.14810206E-1,-1.9718936E-1,-5.6427203E-2,-2.6923227E-1,-1.631221E-1,-1.570509E-1,-3.500731E-2,-4.048942E-1,1.5481621E-1,3.153426E-1,1.8747762E-1,-7.6615036E-2,-2.1880592E-1,-1.7234597E-1,-5.8313143E-2,-3.006968E-1,-5.687181E-4,6.4034715E-2,1.8522616E-1,-1.0232373E-1,5.3865097E-2,-2.9905526E-2,8.13402E-2,-1.0741401E-1,1.5767764E-1,2.252744E-1,3.1647554E-1,-1.7234454E-1,-5.4395385E-2,-2.576111E-1,-1.7206493E-1,-1.1070745E-1,4.0764725E-3,8.520997E-2,-4.9015366E-2,-4.0924106E-2,-2.1079765E-1,3.9362233E-2,1.6804865E-1,7.3995836E-2,1.4420909E-1,1.8648574E-1,2.9373783E-1,-2.9955052E-2,6.2528975E-2,7.867972E-2,1.6935332E-1,8.004627E-2,1.531886E-1,1.7385684E-1,2.2807723E-1,1.3852102E-1,2.4270376E-2,1.679908E-1,2.4768114E-1,2.7545178E-1,2.1978278E-1,3.3000055E-1,3.7538755E-1],"split_indices":[1,1,0,3,3,2,3,6,6,6,6,0,0,1,6,3,3,1,7,1,2,1,6,8,2,6,6,6,2,1,2,1,1,6,1,1,6,0,9,5,3,0,6,3,6,0,3,2,7,1,8,9,7,0,3,7,3,6,3,8,2,8,3,0,0,0,0,0,0,0,0,0,0,0,0,0,0,0,0,0,0,0,0,0,0,0,0,0,0,0,0,0,0,0,0,0,0,0,0,0,0,0,0,0,0,0,0,0,0,0,0,0,0,0,0,0,0,0,0,0,0,0,0,0,0,0,0],"split_type":[0,0,0,0,0,0,0,0,0,0,0,0,0,0,0,0,0,0,0,0,0,0,0,0,0,0,0,0,0,0,0,0,0,0,0,0,0,0,0,0,0,0,0,0,0,0,0,0,0,0,0,0,0,0,0,0,0,0,0,0,0,0,0,0,0,0,0,0,0,0,0,0,0,0,0,0,0,0,0,0,0,0,0,0,0,0,0,0,0,0,0,0,0,0,0,0,0,0,0,0,0,0,0,0,0,0,0,0,0,0,0,0,0,0,0,0,0,0,0,0,0,0,0,0,0,0,0],"sum_hessian":[7.816408E7,1.4592807E7,6.3571276E7,7.317363E6,7.275444E6,4.85407E6,5.871721E7,6.0518985E6,1.2654645E6,4.38687E6,2.8885738E6,1.9791676E6,2.8749025E6,2.9341878E7,2.9375328E7,4.4746155E6,1.5772831E6,1.1304232E6,1.350413E5,3.7503758E6,6.364943E5,2.3234032E6,5.651706E5,8.315658E5,1.1476018E6,5.361697E5,2.3387328E6,7.936225E6,2.1405654E7,8.450814E6,2.0924514E7,2.4181622E6,2.0564532E6,9.333122E5,6.4397094E5,5.190153E5,6.1140794E5,8.17022E4,5.3339086E4,1.9582158E6,1.79216E6,3.3744988E5,2.9904444E5,7.136284E5,1.6097748E6,2.3266084E5,3.325098E5,7.0922544E5,1.2234041E5,4.0517456E5,7.424272E5,4.212968E5,1.1487289E5,1.8855772E6,4.5315556E5,2.7658858E6,5.170339E6,5.000936E6,1.6404718E7,2.6494105E6,5.8014035E6,1.7730828E7,3.1936848E6,1.6798538E6,7.3830844E5,1.407055E6,6.493982E5,7.848851E5,1.4842711E5,3.0405744E5,3.399135E5,1.657735E5,3.532418E5,1.9637356E5,4.1503434E5,1.2573497E3,8.044486E4,3.572205E4,1.7617033E4,2.4791503E5,1.7103008E6,5.4395044E5,1.2482095E6,2.1132656E4,3.1631722E5,1.3690758E5,1.6213684E5,5.399448E5,1.736836E5,5.0524838E5,1.1045264E6,7.5684746E3,2.2509236E5,1.6710405E5,1.6540577E5,1.689164E5,5.40309E5,7.5805125E4,4.653528E4,1.5076689E5,2.5440769E5,6.468963E5,9.5530914E4,3.946684E5,2.662841E4,5.005715E4,6.481574E4,9.4333544E5,9.422418E5,2.4636453E5,2.0679105E5,1.3550951E6,1.4107908E6,1.6552038E6,3.5151355E6,9.9667644E5,4.0042598E6,4.2851485E6,1.2119569E7,2.4371732E6,2.1223734E5,2.8384195E6,2.962984E6,1.4871669E7,2.8591598E6,1.5811192E6,1.6125656E6],"tree_param":{"num_deleted":"0","num_feature":"10","num_nodes":"127","size_leaf_vector":"0"}},{"base_weights":[3.419291E-1,-3.4762895E-1,5.17317E-1,-7.056622E-1,-1.2637538E-1,3.2516882E-1,5.994639E-1,-7.732925E-1,-1.11424245E-1,-3.5385883E-1,8.1495E-2,-3.509627E-3,3.83307E-1,5.365531E-1,8.2001966E-1,-8.2765436E-1,-3.7933934E-1,-2.8803366E-1,3.580822E-1,-4.8121375E-1,-4.8376564E-2,-2.1752793E-2,5.526411E-1,-4.3212447E-1,6.1744884E-2,2.1867195E-1,4.5570666E-1,6.503473E-2,5.584439E-1,7.5490165E-1,1.0376366E0,-9.369771E-1,-6.727275E-1,-6.6487354E-1,-2.0373243E-1,-4.151314E-1,-1.2685029E-1,1.860056E-1,7.097326E-1,-5.578116E-1,-7.388229E-2,-2.6227352E-1,1.0534043E-1,-1.2944165E-1,1.8631332E-1,4.391087E-1,8.642459E-1,-8.0202E-1,-3.6833662E-1,1.0488958E-1,-3.5175368E-1,6.914273E-2,3.5936537E-1,2.8030747E-1,4.988128E-1,-1.3796395E-1,1.6188394E-1,3.7927887E-1,6.1535037E-1,6.677349E-1,8.7715286E-1,9.495246E-1,1.1152093E0,-1.0405385E0,-8.626993E-1,-8.0520904E-1,-5.166868E-1,-8.26741E-1,-4.7218338E-1,-3.3094797E-1,1.7892759E-1,-2.4385544E-2,-4.532489E-1,3.5400048E-2,-3.1213513E-1,-1.8187854E-1,3.7032297E-1,5.093972E-1,8.542518E-1,-1.1105248E-1,-6.737243E-1,-3.12099E-1,7.0763275E-2,-3.4900948E-1,3.16357E-1,-9.986023E-2,2.3536508E-1,-3.1726784E-1,9.161399E-3,-3.615345E-2,3.2215238E-1,3.4108925E-1,6.569724E-1,1.8390523E-2,8.8658166E-1,-8.777709E-1,-3.875335E-1,-4.1583872E-1,2.0412318E-1,-3.1371485E-2,2.0546676E-1,-6.0619175E-1,-2.372621E-1,-1.2829435E-1,1.783416E-1,1.564312E-1,4.6619338E-1,3.206696E-1,5.9836525E-2,3.890235E-1,6.007762E-1,-1.916448E-1,1.3087785E-1,1.0454079E-1,3.7508237E-1,1.6077854E-1,4.3930408E-1,4.5787635E-1,6.716643E-1,5.5784625E-1,7.842436E-1,7.443309E-1,9.377096E-1,9.154366E-1,1.0416722E0,1.1300167E0,9.5705533E-1],"categories":[],"categories_nodes":[],"categories_segments":[],"categories_sizes":[],"default_left":[false,false,false,false,false,false,false,false,false,false,false,false,false,false,false,false,false,false,false,false,false,false,false,false,false,false,false,false,false,false,false,false,false,false,false,false,false,false,false,false,false,false,false,false,false,false,false,false,false,false,false,false,false,false,false,false,false,false,false,false,false,false,false,false,false,false,false,false,false,false,false,false,false,false,false,false,false,false,false,false,false,false,false,false,false,false,false,false,false,false,false,false,false,false,false,false,false,false,false,false,false,false,false,false,false,false,false,false,false,false,false,false,false,false,false,false,false,false,false,false,false,false,false,false,false,false,false],"id":3,"left_children":[1,3,5,7,9,11,13,15,17,19,21,23,25,27,29,31,33,35,37,39,41,43,45,47,49,51,53,55,57,59,61,63,65,67,69,71,73,75,77,79,81,83,85,87,89,91,93,95,97,99,101,103,105,107,109,111,113,115,117,119,121,123,125,-1,-1,-1,-1,-1,-1,-1,-1,-1,-1,-1,-1,-1,-1,-1,-1,-1,-1,-1,-1,-1,-1,-1,-1,-1,-1,-1,-1,-1,-1,-1,-1,-1,-1,-1,-1,-1,-1,-1,-1,-1,-1,-1,-1,-1,-1,-1,-1,-1,-1,-1,-1,-1,-1,-1,-1,-1,-1,-1,-1,-1,-1,-1,-1],"loss_changes":[8.784361E6,1.1667129E6,9.1400594E5,2.2607305E5,4.3044994E5,3.3138112E5,5.6283756E5,1.08161734E5,4.766222E4,1.6909552E5,2.3137908E5,7.290033E4,1.756384E5,3.2577462E5,1.275717E5,7.516758E4,3.0707613E4,8.556674E3,9.507131E3,9.5709805E4,4.2048324E4,8.7419E4,3.0246637E4,8.1255244E3,4.035605E4,9.4685914E4,7.7381484E4,2.7529697E4,3.075122E5,7.3837516E4,1.4170846E4,2.0014586E4,3.7956176E4,7.2736255E3,1.845988E4,3.4783276E3,5.536063E3,7.153452E3,1.494147E3,1.337094E5,1.6730375E4,2.6838268E4,1.985363E4,6.6928914E4,4.0210938E4,1.3382123E4,4.313637E3,1.5900586E3,7.9876953E3,2.807213E4,6.225915E3,4.7040883E4,5.0271277E4,1.7966922E4,9.196871E4,6.5271743E3,1.1589599E4,9.535674E4,2.029934E5,5.1787355E4,2.3197031E4,3.0483333E3,2.5811357E3,0E0,0E0,0E0,0E0,0E0,0E0,0E0,0E0,0E0,0E0,0E0,0E0,0E0,0E0,0E0,0E0,0E0,0E0,0E0,0E0,0E0,0E0,0E0,0E0,0E0,0E0,0E0,0E0,0E0,0E0,0E0,0E0,0E0,0E0,0E0,0E0,0E0,0E0,0E0,0E0,0E0,0E0,0E0,0E0,0E0,0E0,0E0,0E0,0E0,0E0,0E0,0E0,0E0,0E0,0E0,0E0,0E0,0E0,0E0,0E0,0E0,0E0,0E0,0E0],"parents":[2147483647,0,0,1,1,2,2,3,3,4,4,5,5,6,6,7,7,8,8,9,9,10,10,11,11,12,12,13,13,14,14,15,15,16,16,17,17,18,18,19,19,20,20,21,21,22,22,23,23,24,24,25,25,26,26,27,27,28,28,29,29,30,30,31,31,32,32,33,33,34,34,35,35,36,36,37,37,38,38,39,39,40,40,41,41,42,42,43,43,44,44,45,45,46,46,47,47,48,48,49,49,50,50,51,51,52,52,53,53,54,54,55,55,56,56,57,57,58,58,59,59,60,60,61,61,62,62],"right_children":[2,4,6,8,10,12,14,16,18,20,22,24,26,28,30,32,34,36,38,40,42,44,46,48,50,52,54,56,58,60,62,64,66,68,70,72,74,76,78,80,82,84,86,88,90,92,94,96,98,100,102,104,106,108,110,112,114,116,118,120,122,124,126,-1,-1,-1,-1,-1,-1,-1,-1,-1,-1,-1,-1,-1,-1,-1,-1,-1,-1,-1,-1,-1,-1,-1,-1,-1,-1,-1,-1,-1,-1,-1,-1,-1,-1,-1,-1,-1,-1,-1,-1,-1,-1,-1,-1,-1,-1,-1,-1,-1,-1,-1,-1,-1,-1,-1,-1,-1,-1,-1,-1,-1,-1,-1,-1],"split_conditions":[1.6554251E-1,-5.827714E-1,5.000007E-1,4.5555547E-1,3.7019604E-1,3.7784564E-1,-5.595767E-1,-8.2750225E-1,-8.2750225E-1,9.934812E-1,-8.0798334E-1,-7.2011197E-1,8.028837E-1,-3.0543786E-1,5.573968E-1,3.7019604E-1,-7.980293E-1,-7.334506E-1,6.901143E-1,1.015837E0,2.985452E-1,9.268667E-1,7.6218134E-1,5.956863E-1,2.9563574E-2,3.6667737E-1,-9.976424E-1,-7.2011197E-1,7.441206E-1,8.1643033E-1,9.0034574E-1,-7.980293E-1,-9.898505E-1,3.437182E-1,9.9947536E-1,9.009838E-3,5.195319E-1,-7.980293E-1,9.9947536E-1,-9.6100867E-1,-9.898505E-1,1.1581423E0,-3.004114E-1,-9.941442E-1,-3.004114E-1,4.785735E-1,-5.117548E-1,1.2045885E0,-6.140423E-1,4.367615E-1,3.275026E-1,-9.8838663E-1,-9.949631E-1,1.7058881E-2,3.7380564E-1,9.9928296E-1,9.977941E-1,3.3141175E-1,3.5548496E-1,4.3180367E-1,-1.986616E-1,6.5784043E-1,1.6670894E-2,-3.1216156E-1,-2.588098E-1,-2.4156272E-1,-1.5500605E-1,-2.480223E-1,-1.4165501E-1,-9.9284396E-2,5.3678278E-2,-7.315663E-3,-1.3597468E-1,1.0620015E-2,-9.364054E-2,-5.4563563E-2,1.11096896E-1,1.5281917E-1,2.5627556E-1,-3.3315748E-2,-2.021173E-1,-9.36297E-2,2.1228984E-2,-1.0470285E-1,9.49071E-2,-2.995807E-2,7.0609525E-2,-9.5180355E-2,2.7484198E-3,-1.0846036E-2,9.664572E-2,1.0232678E-1,1.9709173E-1,5.5171573E-3,2.6597452E-1,-2.633313E-1,-1.1626005E-1,-1.2475162E-1,6.123696E-2,-9.411446E-3,6.164003E-2,-1.8185753E-1,-7.117863E-2,-3.8488306E-2,5.350248E-2,4.6929363E-2,1.3985802E-1,9.620088E-2,1.7950958E-2,1.1670706E-1,1.8023287E-1,-5.7493445E-2,3.9263356E-2,3.136224E-2,1.1252472E-1,4.8233565E-2,1.3179123E-1,1.3736291E-1,2.014993E-1,1.6735388E-1,2.3527308E-1,2.2329928E-1,2.813129E-1,2.74631E-1,3.1250167E-1,3.3900502E-1,2.8711662E-1],"split_indices":[1,1,2,3,3,0,6,6,6,7,6,0,1,0,3,3,1,1,2,5,3,7,2,1,9,3,6,0,1,2,2,1,6,3,7,8,2,1,7,5,6,5,1,6,1,3,0,4,6,2,3,6,6,8,3,7,7,3,3,3,6,3,8,0,0,0,0,0,0,0,0,0,0,0,0,0,0,0,0,0,0,0,0,0,0,0,0,0,0,0,0,0,0,0,0,0,0,0,0,0,0,0,0,0,0,0,0,0,0,0,0,0,0,0,0,0,0,0,0,0,0,0,0,0,0,0,0],"split_type":[0,0,0,0,0,0,0,0,0,0,0,0,0,0,0,0,0,0,0,0,0,0,0,0,0,0,0,0,0,0,0,0,0,0,0,0,0,0,0,0,0,0,0,0,0,0,0,0,0,0,0,0,0,0,0,0,0,0,0,0,0,0,0,0,0,0,0,0,0,0,0,0,0,0,0,0,0,0,0,0,0,0,0,0,0,0,0,0,0,0,0,0,0,0,0,0,0,0,0,0,0,0,0,0,0,0,0,0,0,0,0,0,0,0,0,0,0,0,0,0,0,0,0,0,0,0,0],"sum_hessian":[7.2633976E7,1.4728224E7,5.7905748E7,5.6253165E6,9.102907E6,1.7341828E7,4.056392E7,5.050516E6,5.748005E5,4.346406E6,4.756501E6,2.606462E6,1.4735366E7,3.1561424E7,9.002497E6,4.4380985E6,6.1241744E5,4.1768472E5,1.5711578E5,3.0675505E6,1.2788559E6,3.9015168E6,8.5498444E5,3.4438875E5,2.2620732E6,4.5007565E6,1.023461E7,1.4002691E6,3.0161156E7,6.929094E6,2.0734038E6,2.6020092E6,1.8360891E6,2.3321331E5,3.7920412E5,2.3353448E5,1.8415025E5,1.05494586E5,5.162119E4,2.5820082E6,4.8554203E5,5.3475056E5,7.441053E5,2.570897E6,1.3306198E6,6.266636E5,2.283208E5,5.065233E4,2.937364E5,2.0483481E6,2.1372514E5,2.1818665E6,2.3188898E6,2.019057E6,8.2155525E6,4.52279E5,9.479901E5,7.2705265E6,2.2890628E7,4.044978E6,2.8841158E6,9.707623E5,1.1026414E6,1.0867716E6,1.5152376E6,9.93005E5,8.430842E5,1.2674182E5,1.064715E5,2.8459162E5,9.4612516E4,2.075677E4,2.1277772E5,9.817826E4,8.597199E4,3.5212664E4,7.028192E4,2.163494E4,2.9986254E4,5.3190456E5,2.0501038E6,1.834376E5,3.0210444E5,4.6504178E5,6.970878E4,2.88618E5,4.5548728E5,1.0916118E6,1.4792852E6,5.0445797E5,8.2616175E5,4.322099E5,1.9445375E5,5.8740195E3,2.2244677E5,4.282465E4,7.8276797E3,2.7123028E5,2.2506115E4,8.6986444E5,1.1784838E6,6.6324945E4,1.4740019E5,7.7700394E5,1.4048626E6,7.9971875E5,1.5191711E6,1.7066215E6,3.1243553E5,3.9559658E6,4.259587E6,3.770017E5,7.527733E4,7.4705825E5,2.0093186E5,1.5668766E6,5.70365E6,6.0296295E6,1.6860998E7,2.0816311E6,1.9633469E6,9.031683E5,1.9809475E6,7.08631E5,2.621313E5,1.0082377E6,9.4403734E4],"tree_param":{"num_deleted":"0","num_feature":"10","num_nodes":"127","size_leaf_vector":"0"}},{"base_weights":[2.6079872E-1,-4.12894E-1,3.7037104E-1,-5.4990196E-1,-1.4044677E-1,4.9836898E-1,2.6056176E-1,-7.45545E-1,-3.888683E-1,-2.7448618E-1,1.2385176E-1,1.2425442E-1,5.35895E-1,1.290158E-1,3.5054117E-1,-8.431616E-1,-5.439636E-1,-5.479366E-1,-1.6924256E-1,-7.766857E-2,-4.5314264E-1,1.4964351E-2,4.730861E-1,-3.5645216E-4,4.7884846E-1,4.9435923E-1,7.8678733E-1,-4.3751128E-2,2.1392357E-1,2.75023E-1,5.328733E-1,-6.0531443E-1,-8.745573E-1,-1.8476786E-1,-6.136208E-1,-7.495361E-1,-4.4613054E-1,-2.3653167E-1,2.6389852E-1,-3.064108E-1,1.584998E-2,-6.6907996E-1,-3.3871925E-1,-1.9458795E-1,1.5596372E-1,2.0719256E-1,5.814036E-1,-5.354725E-2,5.136776E-1,3.6808226E-1,6.931852E-1,2.207825E-1,5.1630783E-1,4.6134764E-1,8.2899314E-1,-2.9539713E-1,4.820438E-2,-1.7537056E-2,2.5623134E-1,-1.1431931E-1,2.991017E-1,1.1570087E-1,5.716711E-1,-6.845051E-1,-3.2053018E-1,-9.2109865E-1,-6.395283E-1,-3.5042572E-1,1.7948967E-1,-7.039367E-1,-1.9835038E-1,-8.6689687E-1,-5.8804214E-1,-5.490549E-1,-2.2579609E-1,1.9876236E-1,-3.3580884E-1,-3.4266818E-1,3.177836E-1,-5.4037607E-1,-2.0340694E-1,-7.1682745E-1,4.3068912E-2,-7.38191E-1,-4.0334454E-1,-4.178862E-1,-7.099179E-2,-5.075909E-1,-1.0609876E-1,-4.034087E-1,1.9282712E-1,-6.078641E-1,2.781931E-1,-7.9641074E-2,6.084175E-1,-2.7174354E-1,1.12882685E-2,3.7616417E-1,6.859648E-1,1.274659E-1,4.2785537E-1,5.9732234E-1,9.148477E-1,5.8691647E-2,2.7847984E-1,4.258017E-1,5.750494E-1,8.852448E-2,5.0102675E-1,7.7727956E-1,1.0246406E0,6.42507E-2,-3.825053E-1,-7.762723E-2,1.8771526E-1,-1.5155819E-1,1.01892605E-1,2.9443964E-1,4.5114923E-2,-5.94211E-2,-5.0848484E-1,1.4134136E-1,3.5067406E-1,-1.9267061E-1,2.3569259E-1,5.218517E-1,7.950106E-1],"categories":[],"categories_nodes":[],"categories_segments":[],"categories_sizes":[],"default_left":[false,false,false,false,false,false,false,false,false,false,false,false,false,false,false,false,false,false,false,false,false,false,false,false,false,false,false,false,false,false,false,false,false,false,false,false,false,false,false,false,false,false,false,false,false,false,false,false,false,false,false,false,false,false,false,false,false,false,false,false,false,false,false,false,false,false,false,false,false,false,false,false,false,false,false,false,false,false,false,false,false,false,false,false,false,false,false,false,false,false,false,false,false,false,false,false,false,false,false,false,false,false,false,false,false,false,false,false,false,false,false,false,false,false,false,false,false,false,false,false,false,false,false,false,false,false,false],"id":4,"left_children":[1,3,5,7,9,11,13,15,17,19,21,23,25,27,29,31,33,35,37,39,41,43,45,47,49,51,53,55,57,59,61,63,65,67,69,71,73,75,77,79,81,83,85,87,89,91,93,95,97,99,101,103,105,107,109,111,113,115,117,119,121,123,125,-1,-1,-1,-1,-1,-1,-1,-1,-1,-1,-1,-1,-1,-1,-1,-1,-1,-1,-1,-1,-1,-1,-1,-1,-1,-1,-1,-1,-1,-1,-1,-1,-1,-1,-1,-1,-1,-1,-1,-1,-1,-1,-1,-1,-1,-1,-1,-1,-1,-1,-1,-1,-1,-1,-1,-1,-1,-1,-1,-1,-1,-1,-1,-1],"loss_changes":[5.006738E6,3.541705E5,8.199498E5,1.9890273E5,1.1247378E5,3.781781E5,3.716584E5,5.608834E4,1.2098091E5,7.407122E4,4.0625574E4,1.0850788E5,2.5512589E5,1.8709023E5,2.5673888E5,1.4339888E4,2.3268236E4,4.1219664E4,4.239559E4,2.144127E4,2.728286E4,2.406311E4,7.313095E3,4.9683586E4,1.5160209E4,1.26124695E5,4.7762637E4,9.724934E4,8.373929E4,1.2360544E5,8.838606E4,5.0500664E3,1.8556357E4,9.114937E3,2.9213525E4,1.2771914E4,3.026289E4,5.4408223E4,6.3929688E3,7.0096235E3,1.4188308E4,7.0235176E3,1.5297744E4,9.072842E3,1.0038809E4,4.253631E3,3.2219272E3,2.3296014E4,4.0367913E3,6.0549927E3,4.622575E3,1.4589515E4,1.0337631E5,5.9054946E3,3.1142795E4,3.523531E4,5.4032105E4,2.115217E4,5.831834E4,1.6616889E4,1.010245E5,1.7193324E4,5.559053E4,0E0,0E0,0E0,0E0,0E0,0E0,0E0,0E0,0E0,0E0,0E0,0E0,0E0,0E0,0E0,0E0,0E0,0E0,0E0,0E0,0E0,0E0,0E0,0E0,0E0,0E0,0E0,0E0,0E0,0E0,0E0,0E0,0E0,0E0,0E0,0E0,0E0,0E0,0E0,0E0,0E0,0E0,0E0,0E0,0E0,0E0,0E0,0E0,0E0,0E0,0E0,0E0,0E0,0E0,0E0,0E0,0E0,0E0,0E0,0E0,0E0,0E0,0E0,0E0],"parents":[2147483647,0,0,1,1,2,2,3,3,4,4,5,5,6,6,7,7,8,8,9,9,10,10,11,11,12,12,13,13,14,14,15,15,16,16,17,17,18,18,19,19,20,20,21,21,22,22,23,23,24,24,25,25,26,26,27,27,28,28,29,29,30,30,31,31,32,32,33,33,34,34,35,35,36,36,37,37,38,38,39,39,40,40,41,41,42,42,43,43,44,44,45,45,46,46,47,47,48,48,49,49,50,50,51,51,52,52,53,53,54,54,55,55,56,56,57,57,58,58,59,59,60,60,61,61,62,62],"right_children":[2,4,6,8,10,12,14,16,18,20,22,24,26,28,30,32,34,36,38,40,42,44,46,48,50,52,54,56,58,60,62,64,66,68,70,72,74,76,78,80,82,84,86,88,90,92,94,96,98,100,102,104,106,108,110,112,114,116,118,120,122,124,126,-1,-1,-1,-1,-1,-1,-1,-1,-1,-1,-1,-1,-1,-1,-1,-1,-1,-1,-1,-1,-1,-1,-1,-1,-1,-1,-1,-1,-1,-1,-1,-1,-1,-1,-1,-1,-1,-1,-1,-1,-1,-1,-1,-1,-1,-1,-1,-1,-1,-1,-1,-1,-1,-1,-1,-1,-1,-1,-1,-1,-1,-1,-1,-1],"split_conditions":[-2.0827009E-1,4.039002E-1,1.1218494E-2,-6.4803684E-1,-9.48089E-1,3.7176213E-1,-9.7484356E-1,-9.531819E-1,-9.6525747E-1,5.2830386E-1,-5.180858E-1,4.4769654E-1,-4.396579E-1,6.566638E-1,4.237296E-1,-1.1832638E0,-1.0302536E0,3.130402E-1,1.1668972E0,-7.204746E-1,-7.204746E-1,-6.4803684E-1,6.4109784E-1,-6.744185E-1,4.857138E-1,2.6288086E-1,6.001545E-1,3.3063507E-1,2.6288086E-1,-3.239112E-1,-1.6802216E-1,-7.204746E-1,1.0210518E0,-7.4151707E-1,1.088746E0,9.5642483E-1,9.5642483E-1,-1.0302536E0,3.87576E-3,-8.509902E-1,-5.2807057E-1,-9.798018E-1,9.617388E-1,-8.509902E-1,-1.6802216E-1,-1.6802216E-1,-3.239112E-1,-9.9715954E-1,1.3404865E-2,-9.9815845E-1,7.005758E-1,-5.2807057E-1,3.9341453E-1,3.130402E-1,6.357568E-1,-1.1832638E0,7.227344E-1,6.458338E-1,2.6864713E-2,3.0532235E-2,2.981035E-1,-7.2774523E-1,7.171023E-1,-2.0535155E-1,-9.6159056E-2,-2.763296E-1,-1.9185849E-1,-1.0512772E-1,5.3846903E-2,-2.1118101E-1,-5.9505116E-2,-2.6006907E-1,-1.7641264E-1,-1.6471648E-1,-6.773883E-2,5.962871E-2,-1.0074266E-1,-1.0280046E-1,9.533508E-2,-1.6211283E-1,-6.1022084E-2,-2.1504824E-1,1.2920674E-2,-2.2145732E-1,-1.2100337E-1,-1.2536587E-1,-2.1297539E-2,-1.5227728E-1,-3.182963E-2,-1.2102262E-1,5.7848137E-2,-1.8235923E-1,8.345793E-2,-2.3892323E-2,1.8252526E-1,-8.152306E-2,3.3864807E-3,1.1284926E-1,2.0578946E-1,3.8239773E-2,1.2835662E-1,1.7919672E-1,2.7445433E-1,1.7607495E-2,8.354396E-2,1.2774052E-1,1.7251483E-1,2.6557347E-2,1.5030803E-1,2.3318388E-1,3.0739218E-1,1.927521E-2,-1.1475159E-1,-2.3288168E-2,5.631458E-2,-4.546746E-2,3.0567782E-2,8.833189E-2,1.3534478E-2,-1.782633E-2,-1.5254545E-1,4.240241E-2,1.0520222E-1,-5.7801187E-2,7.070778E-2,1.5655552E-1,2.385032E-1],"split_indices":[1,3,8,1,6,1,6,6,6,2,6,3,6,1,3,5,5,3,5,1,1,1,2,6,3,0,2,3,0,0,0,1,5,6,5,7,7,5,0,1,0,6,7,1,0,0,0,6,9,6,2,0,3,3,3,5,7,7,9,9,3,0,2,0,0,0,0,0,0,0,0,0,0,0,0,0,0,0,0,0,0,0,0,0,0,0,0,0,0,0,0,0,0,0,0,0,0,0,0,0,0,0,0,0,0,0,0,0,0,0,0,0,0,0,0,0,0,0,0,0,0,0,0,0,0,0,0],"split_type":[0,0,0,0,0,0,0,0,0,0,0,0,0,0,0,0,0,0,0,0,0,0,0,0,0,0,0,0,0,0,0,0,0,0,0,0,0,0,0,0,0,0,0,0,0,0,0,0,0,0,0,0,0,0,0,0,0,0,0,0,0,0,0,0,0,0,0,0,0,0,0,0,0,0,0,0,0,0,0,0,0,0,0,0,0,0,0,0,0,0,0,0,0,0,0,0,0,0,0,0,0,0,0,0,0,0,0,0,0,0,0,0,0,0,0,0,0,0,0,0,0,0,0,0,0,0,0],"sum_hessian":[6.782538E7,9.488209E6,5.833717E7,6.3133555E6,3.1748538E6,2.6937626E7,3.1399542E7,2.8503742E6,3.4629812E6,2.1065258E6,1.068328E6,2.4556912E6,2.4481936E7,1.2753901E7,1.8645642E7,1.9204064E6,9.2996775E5,2.0083745E6,1.4546066E6,1.00231875E6,1.104207E6,8.144062E5,2.5392183E5,1.817122E6,6.385691E5,2.1004584E7,3.4773502E6,4.2026065E6,8.551294E6,1.3184782E7,5.4608595E6,2.2393598E5,1.6964704E6,1.5105225E5,7.789155E5,6.73897E5,1.3344776E6,1.2590169E6,1.955897E5,2.9086747E5,7.1145125E5,3.824504E5,7.217566E5,3.275714E5,4.8683475E5,7.3499984E4,1.8042184E5,1.6467245E6,1.7039752E5,4.2100325E5,2.1756588E5,1.560008E6,1.9444576E7,3.9920256E5,3.0781478E6,1.1247115E6,3.077895E6,1.321505E6,7.2297895E6,7.6791494E5,1.2416867E7,4.6465678E5,4.9962025E6,1.7521272E5,4.8723266E4,1.4160551E6,2.8041528E5,1.0383154E5,4.7220707E4,6.397727E5,1.3914286E5,3.902733E5,2.8362366E5,9.0958406E5,4.2489353E5,2.3381645E5,1.0252005E6,1.5957373E4,1.7963233E5,8.891033E4,2.0195716E5,2.5482756E4,6.859685E5,3.0351266E5,7.893773E4,5.5703956E5,1.6471706E5,7.219595E4,2.5537545E5,3.0098852E4,4.567359E5,5.889011E3,6.761097E4,7.0834663E3,1.7333838E5,3.7722272E5,1.2695018E6,9.476373E4,7.563379E4,8.3774125E4,3.3722912E5,1.5188397E5,6.56819E4,4.0952344E5,1.1504845E6,7.6530825E6,1.1791495E7,3.8400133E4,3.6080244E5,2.43463E6,6.435176E5,2.1929545E5,9.054161E5,1.6182855E6,1.4596094E6,6.22712E5,6.9879294E5,6.121845E6,1.1079444E6,6.7403806E5,9.387688E4,3.059089E6,9.357778E6,1.30157984E5,3.3449878E5,4.0849858E6,9.1121694E5],"tree_param":{"num_deleted":"0","num_feature":"10","num_nodes":"127","size_leaf_vector":"0"}},{"base_weights":[1.9660442E-1,-1.8282947E-1,3.1189296E-1,-3.84354E-1,-7.1775382E-3,1.7711386E-1,3.8505107E-1,-5.201854E-1,-1.7769228E-1,-9.106985E-2,2.2525987E-1,2.8965087E-3,2.2097512E-1,3.5315907E-1,6.7398137E-1,-6.360182E-1,-3.192464E-1,-2.4668989E-1,2.0638971E-1,-2.2156616E-1,4.9882315E-2,1.8133819E-1,6.1771685E-1,-2.978956E-1,3.5785735E-2,6.0930498E-2,2.679459E-1,3.7984598E-1,1.1486991E-1,5.5969954E-1,8.500367E-1,-8.306593E-1,-5.526021E-1,-5.7944477E-1,-2.2133781E-1,-4.218547E-1,-1.5274984E-1,-2.781243E-1,2.762091E-1,-3.9761236E-1,-1.445241E-1,-2.2361651E-1,1.0381426E-1,-4.8120478E-1,2.026681E-1,5.416433E-1,8.1456035E-1,-2.2354047E-1,-6.43373E-1,-1.2717374E-1,8.781458E-2,-3.8541656E-2,1.305626E-1,1.2302367E-1,3.3085594E-1,2.4185917E-1,4.1546142E-1,-1.2967134E-1,1.5305455E-1,2.951279E-1,5.9751993E-1,7.6715976E-1,9.206855E-1,-8.7642896E-1,-6.642581E-1,-7.2520494E-1,-4.5208454E-1,-1.6014947E-1,-6.22189E-1,-4.6118805E-1,-1.0480577E-1,-2.4009463E-1,-5.8712053E-1,-4.8058203E-1,-1.0519639E-1,-4.3349463E-1,1.7141102E-1,2.286371E-1,7.329992E-1,-7.996173E-1,-3.4886655E-1,-6.9600123E-1,-1.1893797E-1,-7.3740727E-1,-1.6020663E-1,-4.2064533E-1,1.2927122E-1,-6.3992953E-1,-5.7129104E-2,1.02515064E-1,3.0645013E-1,2.9354373E-1,6.036858E-1,6.191426E-1,8.3707535E-1,-5.242674E-1,-1.2577511E-1,8.33869E-1,-6.855351E-1,-2.8223938E-1,-4.0417917E-2,-1.03554755E-1,1.2581728E-1,-1.2232064E-2,-3.3345342E-1,-8.3538674E-2,1.5824857E-1,1.5978837E-1,-2.6309941E-2,2.7457654E-1,4.1299492E-1,1.5698974E-1,3.537542E-1,2.0010719E-1,4.405911E-1,-5.1030767E-1,-5.8110926E-2,2.0365621E-1,-1.0848886E-1,1.0698434E-1,3.964897E-1,6.182901E-1,3.842321E-1,7.8907174E-1,5.4998565E-1,6.891594E-1,9.3993175E-1],"categories":[],"categories_nodes":[],"categories_segments":[],"categories_sizes":[],"default_left":[false,false,false,false,false,false,false,false,false,false,false,false,false,false,false,false,false,false,false,false,false,false,false,false,false,false,false,false,false,false,false,false,false,false,false,false,false,false,false,false,false,false,false,false,false,false,false,false,false,false,false,false,false,false,false,false,false,false,false,false,false,false,false,false,false,false,false,false,false,false,false,false,false,false,false,false,false,false,false,false,false,false,false,false,false,false,false,false,false,false,false,false,false,false,false,false,false,false,false,false,false,false,false,false,false,false,false,false,false,false,false,false,false,false,false,false,false,false,false,false,false,false,false,false,false,false,false],"id":5,"left_children":[1,3,5,7,9,11,13,15,17,19,21,23,25,27,29,31,33,35,37,39,41,43,45,47,49,51,53,55,57,59,61,63,65,67,69,71,73,75,77,79,81,83,85,87,89,91,93,95,97,99,101,103,105,107,109,111,113,115,117,119,121,123,125,-1,-1,-1,-1,-1,-1,-1,-1,-1,-1,-1,-1,-1,-1,-1,-1,-1,-1,-1,-1,-1,-1,-1,-1,-1,-1,-1,-1,-1,-1,-1,-1,-1,-1,-1,-1,-1,-1,-1,-1,-1,-1,-1,-1,-1,-1,-1,-1,-1,-1,-1,-1,-1,-1,-1,-1,-1,-1,-1,-1,-1,-1,-1,-1],"loss_changes":[2.7970915E6,5.274603E5,4.8355288E5,1.9479483E5,1.5524606E5,1.3184444E5,2.92903E5,9.745863E4,7.293303E4,1.07604016E5,3.6395215E4,3.4330312E4,1.0361828E5,1.8204566E5,6.357546E4,4.3124367E4,3.9006316E4,3.8389496E4,1.4177864E4,4.1199953E4,4.1483098E4,2.6835402E4,3.1818787E3,8.786238E3,2.65226E4,2.1662275E4,9.715405E4,1.2651762E5,2.6922227E4,1.9172518E4,7.281766E3,6.068066E3,3.2257424E4,7.5025674E3,3.109484E4,2.4463771E4,2.3674129E4,3.6870232E3,7.960145E3,1.812009E4,2.9814586E4,1.5091628E4,3.1363535E4,3.9866062E3,1.912176E4,2.359232E3,2.6010553E2,8.27521E3,3.773548E3,1.0184398E4,1.7244246E4,9.992041E3,1.0904847E4,1.7709326E4,3.434989E4,5.0155695E4,1.107383E5,1.0606581E4,3.300389E4,4.5701743E3,7.426411E3,2.723261E3,2.9911746E3,0E0,0E0,0E0,0E0,0E0,0E0,0E0,0E0,0E0,0E0,0E0,0E0,0E0,0E0,0E0,0E0,0E0,0E0,0E0,0E0,0E0,0E0,0E0,0E0,0E0,0E0,0E0,0E0,0E0,0E0,0E0,0E0,0E0,0E0,0E0,0E0,0E0,0E0,0E0,0E0,0E0,0E0,0E0,0E0,0E0,0E0,0E0,0E0,0E0,0E0,0E0,0E0,0E0,0E0,0E0,0E0,0E0,0E0,0E0,0E0,0E0,0E0,0E0,0E0],"parents":[2147483647,0,0,1,1,2,2,3,3,4,4,5,5,6,6,7,7,8,8,9,9,10,10,11,11,12,12,13,13,14,14,15,15,16,16,17,17,18,18,19,19,20,20,21,21,22,22,23,23,24,24,25,25,26,26,27,27,28,28,29,29,30,30,31,31,32,32,33,33,34,34,35,35,36,36,37,37,38,38,39,39,40,40,41,41,42,42,43,43,44,44,45,45,46,46,47,47,48,48,49,49,50,50,51,51,52,52,53,53,54,54,55,55,56,56,57,57,58,58,59,59,60,60,61,61,62,62],"right_children":[2,4,6,8,10,12,14,16,18,20,22,24,26,28,30,32,34,36,38,40,42,44,46,48,50,52,54,56,58,60,62,64,66,68,70,72,74,76,78,80,82,84,86,88,90,92,94,96,98,100,102,104,106,108,110,112,114,116,118,120,122,124,126,-1,-1,-1,-1,-1,-1,-1,-1,-1,-1,-1,-1,-1,-1,-1,-1,-1,-1,-1,-1,-1,-1,-1,-1,-1,-1,-1,-1,-1,-1,-1,-1,-1,-1,-1,-1,-1,-1,-1,-1,-1,-1,-1,-1,-1,-1,-1,-1,-1,-1,-1,-1,-1,-1,-1,-1,-1,-1,-1,-1,-1,-1,-1,-1],"split_conditions":[2.9499033E-1,-3.8111958E-1,5.073257E-1,3.9230907E-1,4.2946398E-1,5.449084E-1,4.955336E-1,-9.54408E-1,9.980591E-1,9.345812E-1,6.4819866E-1,-7.2838944E-1,-9.9722433E-1,1.9451786E-2,7.720878E-1,-7.832493E-1,-7.832493E-1,-9.9521184E-1,-8.4608454E-1,-9.959285E-1,2.8146872E-1,-5.5511415E-1,6.199349E-1,1.110152E0,4.0687716E-1,8.69671E-1,3.3773276E-1,3.2546386E-1,-2.0699584E0,4.101626E-1,1.0331086E0,9.907707E-1,3.1221253E-1,-1.5988944E0,2.9734084E-1,5.304765E-1,-8.4608454E-1,4.7203848E-1,9.376575E-1,2.8726223E-1,-3.5863414E-1,-1.6421329E0,-3.5863414E-1,1.4631155E-1,7.477229E-1,6.9815147E-1,3.294704E-1,-9.756203E-1,1.4254988E-2,8.351354E-1,-9.986103E-1,2.8769473E-2,3.845038E-1,2.6117899E-2,4.225233E-1,7.720878E-1,3.294704E-1,3.294704E-1,2.0683405E0,-3.5863414E-1,1.8415311E-2,1.7613813E-2,3.294704E-1,-2.629287E-1,-1.9927745E-1,-2.175615E-1,-1.3562536E-1,-4.804484E-2,-1.866567E-1,-1.3835642E-1,-3.1441733E-2,-7.202839E-2,-1.7613617E-1,-1.4417462E-1,-3.1558916E-2,-1.300484E-1,5.1423308E-2,6.859113E-2,2.1989977E-1,-2.398852E-1,-1.0465997E-1,-2.0880038E-1,-3.5681393E-2,-2.2122219E-1,-4.8061993E-2,-1.261936E-1,3.8781367E-2,-1.9197887E-1,-1.7138733E-2,3.075452E-2,9.193504E-2,8.806312E-2,1.8110575E-1,1.8574278E-1,2.5112262E-1,-1.5728022E-1,-3.7732534E-2,2.501607E-1,-2.0566054E-1,-8.467182E-2,-1.2125376E-2,-3.1066427E-2,3.7745185E-2,-3.6696193E-3,-1.0003603E-1,-2.5061604E-2,4.7474574E-2,4.7936514E-2,-7.892983E-3,8.237296E-2,1.23898484E-1,4.7096923E-2,1.06126264E-1,6.003216E-2,1.3217734E-1,-1.5309231E-1,-1.7433278E-2,6.1096866E-2,-3.2546658E-2,3.2095302E-2,1.1894692E-1,1.8548705E-1,1.1526964E-1,2.3672153E-1,1.649957E-1,2.0674783E-1,2.8197953E-1],"split_indices":[1,1,2,3,3,0,3,6,7,7,2,0,6,8,2,1,1,6,1,6,3,0,3,5,2,1,3,3,4,0,2,7,3,5,3,2,1,3,2,3,0,4,0,1,7,0,0,5,9,1,6,9,2,9,3,2,0,0,4,0,8,8,0,0,0,0,0,0,0,0,0,0,0,0,0,0,0,0,0,0,0,0,0,0,0,0,0,0,0,0,0,0,0,0,0,0,0,0,0,0,0,0,0,0,0,0,0,0,0,0,0,0,0,0,0,0,0,0,0,0,0,0,0,0,0,0,0],"split_type":[0,0,0,0,0,0,0,0,0,0,0,0,0,0,0,0,0,0,0,0,0,0,0,0,0,0,0,0,0,0,0,0,0,0,0,0,0,0,0,0,0,0,0,0,0,0,0,0,0,0,0,0,0,0,0,0,0,0,0,0,0,0,0,0,0,0,0,0,0,0,0,0,0,0,0,0,0,0,0,0,0,0,0,0,0,0,0,0,0,0,0,0,0,0,0,0,0,0,0,0,0,0,0,0,0,0,0,0,0,0,0,0,0,0,0,0,0,0,0,0,0,0,0,0,0,0,0],"sum_hessian":[6.3941744E7,1.4900779E7,4.9040964E7,6.939326E6,7.961453E6,1.7253982E7,3.1786982E7,4.1872158E6,2.7521102E6,5.850034E6,2.111419E6,3.470223E6,1.3783759E7,2.8627132E7,3.1598485E6,2.6560902E6,1.5311254E6,2.333003E6,4.1910716E5,3.0376848E6,2.8123492E6,1.8989051E6,2.125138E5,3.4204094E5,3.128182E6,3.1274675E6,1.0656292E7,2.5743968E7,2.8831655E6,1.9160789E6,1.2437696E6,7.9681425E5,1.8592761E6,4.186175E5,1.1125079E6,8.1441144E5,1.5185915E6,5.2787E4,3.6632016E5,9.246938E5,2.112991E6,4.632286E5,2.3491208E6,5.922594E4,1.8396791E6,1.5327989E5,5.9233895E4,2.8146456E5,6.0576387E4,7.5704394E5,2.371138E6,1.2877982E6,1.8396691E6,3.2256202E6,7.4306715E6,5.281516E6,2.0462452E7,3.8939684E5,2.4937685E6,2.3964661E5,1.6764322E6,5.7235825E5,6.7141144E5,6.2492144E5,1.7189281E5,6.842744E5,1.1750018E6,3.872759E4,3.7988994E5,3.6377362E5,7.4873425E5,3.8785228E5,4.265592E5,1.9237239E5,1.3262191E6,3.9228656E4,1.3558342E4,3.3176978E5,3.4550367E4,9.999803E4,8.2469575E5,9.368573E4,2.0193052E6,5.0888008E4,4.123406E5,1.0874577E5,2.240375E6,4.309548E4,1.613046E4,9.3620906E5,9.034701E5,3.0664078E4,1.2261582E5,6.122504E3,5.311139E4,6.905292E4,2.1241162E5,1.6804181E3,5.889597E4,2.7159616E5,4.854478E5,3.9285344E5,1.9782846E6,1.1823222E6,1.0547599E5,2.1065205E5,1.6290171E6,2.588382E6,6.3723825E5,4.409445E6,3.021226E6,3.0034675E6,2.2780485E6,2.1382522E6,1.83242E7,6.162132E4,3.2777553E5,2.0895055E6,4.042632E5,8.390595E4,1.5574066E5,1.5276648E6,1.4876748E5,5.198998E5,5.2458402E4,5.153227E4,6.198792E5],"tree_param":{"num_deleted":"0","num_feature":"10","num_nodes":"127","size_leaf_vector":"0"}},{"base_weights":[1.4662553E-1,-1.2726213E-1,2.3801501E-1,-3.9621314E-1,-3.976557E-2,3.323078E-1,1.6332348E-1,-5.98831E-1,-2.848759E-1,-8.68461E-2,2.562796E-1,3.006413E-1,6.090531E-1,1.205806E-1,2.8591296E-1,-6.511375E-1,-1.428703E-1,-4.334142E-1,-1.3357502E-1,-3.0358297E-1,-2.0346353E-2,-3.342185E-2,3.4927124E-1,1.7356974E-1,3.398817E-1,4.4338894E-1,7.2671765E-1,-2.905611E-2,1.5422471E-1,1.50845E-1,3.9628342E-1,-6.95471E-1,-3.2924432E-1,-3.40253E-1,1.4383198E-1,-5.088829E-1,-1.6717993E-1,-2.1123254E-1,1.3407744E-1,-3.7327424E-1,5.720486E-2,-1.7756231E-1,3.2294903E-2,3.1571385E-2,-4.4374242E-1,2.8506356E-1,6.486378E-1,3.2582764E-2,2.3161109E-1,2.712806E-1,4.34482E-1,2.7860194E-1,5.599045E-1,5.969512E-1,8.0788916E-1,-2.6566058E-1,5.592329E-3,5.7757612E-2,1.9497892E-1,1.8586984E-1,-1.4362654E-1,3.298447E-1,5.204994E-1,-4.1740316E-1,-7.6879376E-1,-6.176306E-1,-2.1501161E-1,-9.7724754E-1,-2.6405174E-1,-1.462162E-1,4.1569906E-1,-7.023383E-1,-4.4186935E-1,5.8729476E-3,-3.1325203E-1,3.154527E-2,-2.6385075E-1,-1.9390884E-1,2.29507E-1,6.659751E-2,-4.6541497E-1,-2.4710792E-1,1.5381576E-1,-2.5687787E-1,-4.307812E-3,2.1284472E-3,2.5575027E-1,-3.6746264E-1,1.0731727E-1,-6.631995E-1,-2.3996942E-1,4.4568166E-2,3.499812E-1,4.1954336E-3,6.823266E-1,3.249038E-1,1.4815619E-2,1.4241229E-1,3.5254687E-1,4.578803E-1,2.4761538E-1,8.079473E-2,4.5245978E-1,5.5733776E-1,2.5083938E-1,-6.289457E-1,5.695637E-1,1.5138967E-1,6.1218053E-1,4.698255E-1,8.2397175E-1,-4.071259E-3,-3.4738988E-1,3.9183617E-2,-2.2450663E-1,1.3722441E-3,1.3914956E-1,1.1942498E-1,3.018618E-1,7.8422256E-2,2.4036524E-1,-2.0457852E-1,3.4348655E-2,5.6439793E-1,3.0178127E-1,4.0193477E-1,6.266058E-1],"categories":[],"categories_nodes":[],"categories_segments":[],"categories_sizes":[],"default_left":[false,false,false,false,false,false,false,false,false,false,false,false,false,false,false,false,false,false,false,false,false,false,false,false,false,false,false,false,false,false,false,false,false,false,false,false,false,false,false,false,false,false,false,false,false,false,false,false,false,false,false,false,false,false,false,false,false,false,false,false,false,false,false,false,false,false,false,false,false,false,false,false,false,false,false,false,false,false,false,false,false,false,false,false,false,false,false,false,false,false,false,false,false,false,false,false,false,false,false,false,false,false,false,false,false,false,false,false,false,false,false,false,false,false,false,false,false,false,false,false,false,false,false,false,false,false,false],"id":6,"left_children":[1,3,5,7,9,11,13,15,17,19,21,23,25,27,29,31,33,35,37,39,41,43,45,47,49,51,53,55,57,59,61,63,65,67,69,71,73,75,77,79,81,83,85,87,89,91,93,95,97,99,101,103,105,107,109,111,113,115,117,119,121,123,125,-1,-1,-1,-1,-1,-1,-1,-1,-1,-1,-1,-1,-1,-1,-1,-1,-1,-1,-1,-1,-1,-1,-1,-1,-1,-1,-1,-1,-1,-1,-1,-1,-1,-1,-1,-1,-1,-1,-1,-1,-1,-1,-1,-1,-1,-1,-1,-1,-1,-1,-1,-1,-1,-1,-1,-1,-1,-1,-1,-1,-1,-1,-1,-1],"loss_changes":[1.5234254E6,3.5833594E5,3.214047E5,8.4321586E4,1.601412E5,1.7676942E5,1.3342938E5,3.1613754E4,5.4213992E4,1.4287667E5,4.2470438E4,9.025228E4,4.0370754E4,9.505547E4,9.813985E4,1.696944E4,7.7197803E3,2.4457625E4,2.4839213E4,5.852068E4,6.277908E4,1.0215942E4,2.2939223E4,3.4946457E4,8.974798E4,1.6514123E4,1.2755083E4,2.841376E4,6.060419E4,3.0533094E4,2.9898295E4,2.1309521E4,4.742094E3,3.9214111E3,4.3861924E3,1.2295109E4,6.7959746E3,1.1832877E4,8.41199E3,7.906001E4,1.1077814E4,2.6147924E4,3.8307152E4,9.995422E3,2.342294E3,1.53416455E4,4.5756694E3,6.468255E3,3.2633527E4,3.5398953E4,3.6962645E4,2.7567393E3,5.786216E3,3.161999E3,4.0499844E3,9.465181E3,2.3367498E4,2.1011156E4,8.751323E4,1.54917295E4,3.4137E3,1.5536679E4,1.5882286E4,0E0,0E0,0E0,0E0,0E0,0E0,0E0,0E0,0E0,0E0,0E0,0E0,0E0,0E0,0E0,0E0,0E0,0E0,0E0,0E0,0E0,0E0,0E0,0E0,0E0,0E0,0E0,0E0,0E0,0E0,0E0,0E0,0E0,0E0,0E0,0E0,0E0,0E0,0E0,0E0,0E0,0E0,0E0,0E0,0E0,0E0,0E0,0E0,0E0,0E0,0E0,0E0,0E0,0E0,0E0,0E0,0E0,0E0,0E0,0E0,0E0,0E0,0E0,0E0],"parents":[2147483647,0,0,1,1,2,2,3,3,4,4,5,5,6,6,7,7,8,8,9,9,10,10,11,11,12,12,13,13,14,14,15,15,16,16,17,17,18,18,19,19,20,20,21,21,22,22,23,23,24,24,25,25,26,26,27,27,28,28,29,29,30,30,31,31,32,32,33,33,34,34,35,35,36,36,37,37,38,38,39,39,40,40,41,41,42,42,43,43,44,44,45,45,46,46,47,47,48,48,49,49,50,50,51,51,52,52,53,53,54,54,55,55,56,56,57,57,58,58,59,59,60,60,61,61,62,62],"right_children":[2,4,6,8,10,12,14,16,18,20,22,24,26,28,30,32,34,36,38,40,42,44,46,48,50,52,54,56,58,60,62,64,66,68,70,72,74,76,78,80,82,84,86,88,90,92,94,96,98,100,102,104,106,108,110,112,114,116,118,120,122,124,126,-1,-1,-1,-1,-1,-1,-1,-1,-1,-1,-1,-1,-1,-1,-1,-1,-1,-1,-1,-1,-1,-1,-1,-1,-1,-1,-1,-1,-1,-1,-1,-1,-1,-1,-1,-1,-1,-1,-1,-1,-1,-1,-1,-1,-1,-1,-1,-1,-1,-1,-1,-1,-1,-1,-1,-1,-1,-1,-1,-1,-1,-1,-1,-1],"split_conditions":[3.5678554E-1,-6.194675E-1,1.103177E-2,3.407121E-1,-7.271852E-1,-3.02048E-1,-7.828112E-1,-6.977568E-1,-9.8254436E-1,3.201289E-1,5.329599E-1,-9.945459E-1,8.295551E-1,3.934032E-1,5.90158E-1,1.1900362E0,6.9297075E-1,4.4512326E-1,9.9807715E-1,1.039631E0,-9.972875E-1,1.3981289E0,1.0182928E0,8.5657233E-1,4.248996E-1,4.6294293E-1,2.0180108E-1,-7.369609E-1,-9.945459E-1,4.6860135E-1,-1.1235471E-3,-9.208256E-1,-8.4214723E-1,-2.0102197E-1,2.9198924E-1,-8.4214723E-1,5.154651E-1,-9.8061496E-1,-8.4214723E-1,-1.120933E0,5.4776347E-1,4.3468457E-1,4.668456E-1,-1.312125E0,3.1600967E-1,3.1600967E-1,-2.0102197E-1,7.7523217E-3,5.2601E-1,7.976145E-3,-2.0102197E-1,7.7298635E-1,-7.369609E-1,-3.812503E-2,1.0111263E-1,-1.0779786E0,2.8831078E-2,9.069207E-1,3.910129E-1,3.2448083E-1,5.2601E-1,8.000184E-1,8.726848E-1,-1.2522095E-1,-2.3063813E-1,-1.8528919E-1,-6.450348E-2,-2.9317427E-1,-7.921553E-2,-4.386486E-2,1.24709725E-1,-2.107015E-1,-1.325608E-1,1.7618843E-3,-9.397561E-2,9.463581E-3,-7.915523E-2,-5.8172654E-2,6.8852104E-2,1.9979253E-2,-1.3962449E-1,-7.413238E-2,4.614473E-2,-7.706337E-2,-1.2923437E-3,6.385342E-4,7.672508E-2,-1.102388E-1,3.219518E-2,-1.9895986E-1,-7.1990825E-2,1.3370451E-2,1.04994364E-1,1.2586301E-3,2.04698E-1,9.747114E-2,4.4446858E-3,4.272369E-2,1.0576407E-1,1.3736409E-1,7.428462E-2,2.423842E-2,1.3573794E-1,1.6720134E-1,7.525182E-2,-1.8868372E-1,1.7086911E-1,4.5416903E-2,1.8365416E-1,1.4094765E-1,2.4719153E-1,-1.2213778E-3,-1.0421697E-1,1.1755086E-2,-6.735199E-2,4.1167325E-4,4.174487E-2,3.5827495E-2,9.0558544E-2,2.3526678E-2,7.210957E-2,-6.1373558E-2,1.0304597E-2,1.6931939E-1,9.053438E-2,1.20580435E-1,1.8798175E-1],"split_indices":[1,1,8,3,6,6,6,6,6,3,2,6,2,0,2,5,2,3,7,5,6,4,2,1,3,3,6,0,6,6,6,5,1,0,3,1,2,5,1,5,7,3,3,4,3,3,0,8,2,8,0,7,0,0,0,4,9,1,3,3,2,7,2,0,0,0,0,0,0,0,0,0,0,0,0,0,0,0,0,0,0,0,0,0,0,0,0,0,0,0,0,0,0,0,0,0,0,0,0,0,0,0,0,0,0,0,0,0,0,0,0,0,0,0,0,0,0,0,0,0,0,0,0,0,0,0,0],"split_type":[0,0,0,0,0,0,0,0,0,0,0,0,0,0,0,0,0,0,0,0,0,0,0,0,0,0,0,0,0,0,0,0,0,0,0,0,0,0,0,0,0,0,0,0,0,0,0,0,0,0,0,0,0,0,0,0,0,0,0,0,0,0,0,0,0,0,0,0,0,0,0,0,0,0,0,0,0,0,0,0,0,0,0,0,0,0,0,0,0,0,0,0,0,0,0,0,0,0,0,0,0,0,0,0,0,0,0,0,0,0,0,0,0,0,0,0,0,0,0,0,0,0,0,0,0,0,0],"sum_hessian":[6.0862876E7,1.5227415E7,4.563546E7,3.737846E6,1.1489569E7,2.0170996E7,2.5464464E7,1.3255431E6,2.412303E6,9.913077E6,1.5764915E6,1.809992E7,2.0710759E6,1.8881212E7,6.5832515E6,1.1891291E6,1.3641395E5,1.2172635E6,1.1950394E6,2.327442E6,7.585635E6,3.8307625E5,1.1934152E6,4.270578E6,1.3829343E7,8.6010625E5,1.2109696E6,3.465947E6,1.5415265E7,2.960404E6,3.6228478E6,1.0451783E6,1.4395086E5,8.079189E4,5.5622062E4,9.484174E5,2.688462E5,9.262845E5,2.6875484E5,1.9506471E6,3.7679497E5,1.9028044E6,5.6828305E6,3.3069616E5,5.23801E4,9.826581E5,2.1075712E5,1.2454018E6,3.0251765E6,8.016233E6,5.81311E6,3.5625756E5,5.038487E5,4.6599922E5,7.449704E5,4.4272122E5,3.023226E6,4.5782765E6,1.0836989E7,2.645719E6,3.1468484E5,2.3603725E6,1.2624752E6,2.1809297E5,8.270853E5,4.084107E4,1.031098E5,8.630929E3,7.216096E4,2.6911412E4,2.871065E4,2.4400672E5,7.044106E5,1.2305859E5,1.457876E5,1.6499702E5,7.612875E5,6.057179E4,2.0818305E5,3.3783812E5,1.612809E6,9.079621E4,2.8599878E5,1.3052591E6,5.975453E5,5.0069005E6,6.759302E5,5.2758305E4,2.7793784E5,2.5218416E4,2.7161688E4,2.088711E5,7.7378706E5,1.0470258E4,2.0028688E5,7.1356875E4,1.1740449E6,1.7410382E6,1.2841381E6,9.022212E5,7.1140115E6,2.811853E5,5.5319245E6,3.226802E4,3.2398956E5,4.0601584E3,4.9978853E5,1.5401826E4,4.5059738E5,3.3832242E4,7.111381E5,1.0539297E5,3.3732825E5,2.6381002E6,3.851256E5,2.7046175E6,1.8736592E6,6.3489855E6,4.488003E6,8.9031125E5,1.7554079E6,2.3440645E5,8.027839E4,2.522293E5,2.1081432E6,5.9623706E5,6.662382E5],"tree_param":{"num_deleted":"0","num_feature":"10","num_nodes":"127","size_leaf_vector":"0"}},{"base_weights":[1.08227E-1,-2.173694E-1,1.5462613E-1,-3.2488173E-1,-8.6581066E-2,1.1672003E-1,2.944716E-1,-4.1566017E-1,-9.6307665E-2,-1.6789196E-1,4.7170226E-2,3.2188337E-2,1.8489319E-1,1.4019382E-1,3.808299E-1,-5.6493247E-1,-3.2143387E-1,-3.400213E-1,-1.4633261E-2,-7.019267E-2,-2.980555E-1,-2.4920167E-1,8.867934E-2,-7.0018716E-2,8.491576E-2,6.897533E-2,2.2139159E-1,7.784477E-2,2.6482663E-1,3.4163603E-1,6.633594E-1,-7.005592E-1,-4.7741732E-1,-3.8271374E-1,-5.8906272E-2,-4.0180093E-1,-2.610582E-2,4.4565743E-1,-5.8068E-2,7.584416E-2,-1.2415368E-1,-4.2088714E-1,-1.1763393E-1,-2.815831E-1,4.1560617E-1,4.766962E-2,3.3639407E-1,-4.1592244E-2,-3.5266763E-1,-4.8104916E-2,1.1778972E-1,-5.5798024E-2,1.0328952E-1,2.6517525E-1,7.008386E-2,1.1044368E-1,-1.3771227E-1,2.9269004E-1,9.839176E-2,3.1855166E-1,5.6053406E-1,5.6723654E-1,7.7953357E-1,-8.019126E-1,-5.9404373E-1,-5.285987E-1,-1.8854514E-1,-3.5452973E-2,-4.682171E-1,2.7586296E-2,-4.9841845E-1,4.1915562E-2,-4.7214282E-1,-8.648754E-2,1.1317958E0,-4.5847788E-1,5.363456E-1,-1.4400922E-1,2.7503094E-1,-2.8518548E-2,2.317682E-1,-1.8658672E-1,1.4088395E-1,-6.31279E-1,-3.469805E-1,-1.4595638E-1,4.484232E-1,-9.105692E-1,-2.5787944E-1,2.3743893E-1,1.058122E0,-1.5458795E-1,9.1256484E-2,2.3288983E-1,5.420693E-1,-3.1114298E-1,-5.334027E-3,-4.4672382E-1,-1.8523398E-1,-1.1063072E-1,9.809591E-2,6.702118E-2,1.9616264E-1,-1.06294535E-1,1.7895469E-1,1.1907822E-1,-1.273637E-1,1.921032E-1,3.595882E-1,2.5139118E-2,1.9376042E-1,2.340011E-1,7.317039E-2,-1.0837786E-1,-3.5583025E-1,4.268005E-2,3.082985E-1,-2.526132E-1,1.1966035E-1,5.4461086E-1,2.9381204E-1,4.2140853E-2,6.010791E-1,5.9447056E-1,3.4654683E-1,5.2791125E-1,8.0904096E-1],"categories":[],"categories_nodes":[],"categories_segments":[],"categories_sizes":[],"default_left":[false,false,false,false,false,false,false,false,false,false,false,false,false,false,false,false,false,false,false,false,false,false,false,false,false,false,false,false,false,false,false,false,false,false,false,false,false,false,false,false,false,false,false,false,false,false,false,false,false,false,false,false,false,false,false,false,false,false,false,false,false,false,false,false,false,false,false,false,false,false,false,false,false,false,false,false,false,false,false,false,false,false,false,false,false,false,false,false,false,false,false,false,false,false,false,false,false,false,false,false,false,false,false,false,false,false,false,false,false,false,false,false,false,false,false,false,false,false,false,false,false,false,false,false,false,false,false],"id":7,"left_children":[1,3,5,7,9,11,13,15,17,19,21,23,25,27,29,31,33,35,37,39,41,43,45,47,49,51,53,55,57,59,61,63,65,67,69,71,73,75,77,79,81,83,85,87,89,91,93,95,97,99,101,103,105,107,109,111,113,115,117,119,121,123,125,-1,-1,-1,-1,-1,-1,-1,-1,-1,-1,-1,-1,-1,-1,-1,-1,-1,-1,-1,-1,-1,-1,-1,-1,-1,-1,-1,-1,-1,-1,-1,-1,-1,-1,-1,-1,-1,-1,-1,-1,-1,-1,-1,-1,-1,-1,-1,-1,-1,-1,-1,-1,-1,-1,-1,-1,-1,-1,-1,-1,-1,-1,-1,-1],"loss_changes":[8.835194E5,1.0257132E5,2.7134756E5,8.3071484E4,3.5791406E4,2.3207928E5,1.4543583E5,4.0304035E4,2.2652758E4,2.6028328E4,1.530728E4,9.6890555E4,9.431793E4,3.0441748E4,7.749745E4,1.3161089E4,2.8260164E4,5.5398325E3,1.7041357E4,9.213511E3,1.9448285E4,3.2908254E3,1.1087368E4,4.916122E4,5.1864246E4,2.2856436E4,1.123213E5,1.8348748E4,6.057794E3,3.1055988E4,9.520459E3,4.6944126E3,9.964464E3,4.228723E4,1.263761E4,7.4496797E3,3.284348E3,6.0267026E3,2.2297105E4,5.1333022E3,1.4126756E4,8.1183354E3,5.6988403E3,2.1729722E3,8.1253986E2,8.255063E3,3.3000212E3,5.433519E4,8.805132E3,2.1484537E4,3.783939E4,1.3649703E4,1.5247717E4,9.0718266E4,2.1150924E4,1.044586E4,2.194729E3,4.3664526E3,1.3985177E3,3.1092771E4,1.2323025E4,2.8039692E3,2.865739E3,0E0,0E0,0E0,0E0,0E0,0E0,0E0,0E0,0E0,0E0,0E0,0E0,0E0,0E0,0E0,0E0,0E0,0E0,0E0,0E0,0E0,0E0,0E0,0E0,0E0,0E0,0E0,0E0,0E0,0E0,0E0,0E0,0E0,0E0,0E0,0E0,0E0,0E0,0E0,0E0,0E0,0E0,0E0,0E0,0E0,0E0,0E0,0E0,0E0,0E0,0E0,0E0,0E0,0E0,0E0,0E0,0E0,0E0,0E0,0E0,0E0,0E0,0E0,0E0],"parents":[2147483647,0,0,1,1,2,2,3,3,4,4,5,5,6,6,7,7,8,8,9,9,10,10,11,11,12,12,13,13,14,14,15,15,16,16,17,17,18,18,19,19,20,20,21,21,22,22,23,23,24,24,25,25,26,26,27,27,28,28,29,29,30,30,31,31,32,32,33,33,34,34,35,35,36,36,37,37,38,38,39,39,40,40,41,41,42,42,43,43,44,44,45,45,46,46,47,47,48,48,49,49,50,50,51,51,52,52,53,53,54,54,55,55,56,56,57,57,58,58,59,59,60,60,61,61,62,62],"right_children":[2,4,6,8,10,12,14,16,18,20,22,24,26,28,30,32,34,36,38,40,42,44,46,48,50,52,54,56,58,60,62,64,66,68,70,72,74,76,78,80,82,84,86,88,90,92,94,96,98,100,102,104,106,108,110,112,114,116,118,120,122,124,126,-1,-1,-1,-1,-1,-1,-1,-1,-1,-1,-1,-1,-1,-1,-1,-1,-1,-1,-1,-1,-1,-1,-1,-1,-1,-1,-1,-1,-1,-1,-1,-1,-1,-1,-1,-1,-1,-1,-1,-1,-1,-1,-1,-1,-1,-1,-1,-1,-1,-1,-1,-1,-1,-1,-1,-1,-1,-1,-1,-1,-1,-1,-1,-1],"split_conditions":[-2.7031004E-1,3.86493E-1,-7.3797554E-1,9.9375755E-1,9.526817E-1,8.421475E-1,5.9460163E-1,-9.918189E-1,-7.6373833E-1,5.43721E-1,-8.371004E-1,3.5175508E-1,6.868747E-1,4.20351E-1,5.866527E-1,-6.8592864E-1,9.210989E-1,1.046248E0,-1.621495E0,1.0145965E-2,-9.764206E-1,8.186409E-1,4.8723555E-1,1.6547457E0,-9.982929E-1,-3.8474023E-1,9.744543E-1,4.332995E-1,2.6214419E-2,1.2055132E0,1.0012932E0,3.327421E-1,9.8033816E-1,-1.0538778E0,1.6547457E0,-1.3801547E0,1.0012932E0,-6.0125064E-2,9.210989E-1,4.6199533E-1,1.1236984E0,-7.6373833E-1,6.8887246E-1,-5.7409984E-1,8.744119E-1,4.5841762E-1,9.997962E-1,-1.4102294E0,6.327589E-1,9.164388E-1,4.337403E-1,1.0810894E0,2.885924E-2,5.214183E-1,4.104912E-1,8.48902E-1,2.2294194E-2,-2.198908E-1,-2.2598016E0,8.229921E-1,2.1195173E-1,1.7732818E-2,4.5841762E-1,-2.405738E-1,-1.7821312E-1,-1.5857962E-1,-5.6563545E-2,-1.0635892E-2,-1.4046514E-1,8.275889E-3,-1.4952554E-1,1.2574669E-2,-1.4164285E-1,-2.5946263E-2,3.3953875E-1,-1.3754337E-1,1.6090369E-1,-4.3202765E-2,8.250929E-2,-8.555565E-3,6.9530465E-2,-5.597602E-2,4.2265188E-2,-1.893837E-1,-1.04094155E-1,-4.3786917E-2,1.3452697E-1,-2.7317077E-1,-7.7363834E-2,7.1231686E-2,3.1743664E-1,-4.637639E-2,2.7376946E-2,6.9866955E-2,1.626208E-1,-9.33429E-2,-1.6002082E-3,-1.3401715E-1,-5.5570196E-2,-3.318922E-2,2.9428774E-2,2.0106357E-2,5.8848795E-2,-3.1888362E-2,5.368641E-2,3.5723466E-2,-3.820911E-2,5.7630964E-2,1.07876465E-1,7.5417357E-3,5.812813E-2,7.020033E-2,2.1951118E-2,-3.2513358E-2,-1.0674908E-1,1.2804016E-2,9.2489555E-2,-7.578396E-2,3.5898104E-2,1.6338326E-1,8.814362E-2,1.2642256E-2,1.8032373E-1,1.7834118E-1,1.0396405E-1,1.5837339E-1,2.427123E-1],"split_indices":[1,3,6,7,7,1,2,6,1,2,1,3,0,3,3,1,5,5,5,8,6,2,3,4,6,0,7,6,9,2,2,3,5,5,4,5,2,0,5,3,5,1,2,0,5,0,7,4,1,7,3,4,9,2,3,7,8,0,4,7,0,8,0,0,0,0,0,0,0,0,0,0,0,0,0,0,0,0,0,0,0,0,0,0,0,0,0,0,0,0,0,0,0,0,0,0,0,0,0,0,0,0,0,0,0,0,0,0,0,0,0,0,0,0,0,0,0,0,0,0,0,0,0,0,0,0,0],"split_type":[0,0,0,0,0,0,0,0,0,0,0,0,0,0,0,0,0,0,0,0,0,0,0,0,0,0,0,0,0,0,0,0,0,0,0,0,0,0,0,0,0,0,0,0,0,0,0,0,0,0,0,0,0,0,0,0,0,0,0,0,0,0,0,0,0,0,0,0,0,0,0,0,0,0,0,0,0,0,0,0,0,0,0,0,0,0,0,0,0,0,0,0,0,0,0,0,0,0,0,0,0,0,0,0,0,0,0,0,0,0,0,0,0,0,0,0,0,0,0,0,0,0,0,0,0,0,0],"sum_hessian":[5.8482584E7,7.294553E6,5.1188028E7,4.0035232E6,3.2910298E6,4.0272016E7,1.0916014E7,2.86549E6,1.1380332E6,2.0467542E6,1.2442755E6,1.7978936E7,2.229308E7,3.9174868E6,6.998527E6,1.1088526E6,1.7566374E6,2.8565256E5,8.523807E5,1.1691814E6,8.775729E5,1.5286022E5,1.0914152E6,6.1186055E6,1.186033E7,5.3384195E6,1.6954662E7,2.611203E6,1.3062838E6,6.145935E6,8.52592E5,4.3488397E5,6.739687E5,1.4241971E6,3.3244016E5,2.3867939E5,4.6973164E4,7.349744E4,7.7888325E5,3.154543E5,8.53727E5,5.2211428E5,3.5545862E5,1.4576108E5,7.099146E3,9.363943E5,1.5502095E5,5.55948E6,5.5912506E5,2.350263E6,9.510067E6,1.1514638E6,4.186956E6,1.3149588E7,3.8050732E6,2.2681838E6,3.4301925E5,1.118955E6,1.8732873E5,5.5596345E6,5.863007E5,4.6656272E5,3.860293E5,2.2283845E5,2.1204552E5,5.7252906E5,1.01439625E5,2.8138606E5,1.1428111E6,2.7777678E5,5.4663367E4,3.2660088E4,2.060193E5,4.4645914E4,2.3272493E3,6.699659E3,6.679778E4,6.1914206E5,1.5974122E5,1.889725E5,1.26481805E5,6.909622E5,1.6276481E5,1.357276E5,3.8638666E5,3.3852156E5,1.6937059E4,5.292231E3,1.4046884E5,5.55902E3,1.5401257E3,1.6601711E5,7.703772E5,1.0312589E5,5.1895066E4,6.5915844E5,4.9003215E6,3.580103E5,2.0111473E5,1.6462222E6,7.0404075E5,5.7714375E6,3.7386295E6,9.476252E5,2.0383848E5,3.9187122E6,2.6824366E5,7.412556E6,5.737032E6,2.7908605E6,1.01421275E6,5.2566125E5,1.7425224E6,3.0235712E5,4.066212E4,6.5752984E4,1.053202E6,1.0701771E4,1.7662697E5,5.484188E5,5.0112155E6,4.2530047E4,5.437706E5,4.1531E5,5.1252703E4,4.0519637E4,3.455097E5],"tree_param":{"num_deleted":"0","num_feature":"10","num_nodes":"127","size_leaf_vector":"0"}},{"base_weights":[7.901295E-2,-1.602564E-1,1.13193095E-1,-3.4369937E-1,-9.685849E-2,9.946896E-2,3.7571165E-1,-4.717305E-1,-1.1349268E-1,-3.639781E-1,-6.117573E-2,1.1819855E-1,-7.041774E-2,2.8406817E-1,5.775534E-1,-5.2322423E-1,-1.708784E-1,-3.041746E-1,-2.1180604E-3,-5.3563946E-1,-2.6030415E-1,-9.879611E-2,1.8461816E-1,3.3279162E-2,1.5012422E-1,-3.2908058E-1,-4.831236E-2,8.176393E-2,3.1610852E-1,6.2449193E-1,3.8076434E-1,-1.0250841E-1,-5.7746434E-1,-4.3607032E-1,-4.3775335E-2,-3.7819993E-1,2.5623942E-2,-6.228357E-2,3.262179E-1,-6.163482E-1,-3.5697666E-1,-3.2687652E-1,1.0589468E-2,1.3285781E-1,-1.4075437E-1,9.2527255E-2,3.7812448E-1,-2.8690109E-2,1.1144198E-1,2.9928552E-2,1.70348E-1,-5.9575146E-1,-2.4954651E-1,-7.230006E-3,-2.0802195E-1,-2.5490773E-1,1.2982951E-1,-1.4702632E-1,3.2636642E-1,5.5106014E-1,7.365466E-1,2.2122283E-2,4.088363E-1,-3.209136E-1,5.9986737E-2,-7.073097E-1,-4.9819532E-1,-1.1697087E0,-3.9465317E-1,3.0873928E-2,-4.0353337E-1,1.2964779E0,-3.9184245E-1,-6.5161295E-2,7.357214E-1,-1.2383824E-1,2.4855857E-1,2.219394E-1,6.9948053E-1,-2.8168726E-1,-6.6519976E-1,3.9337606E0,-3.7127423E-1,-3.8324094E-1,-3.816797E-2,-3.076967E-2,4.5775282E-1,-3.6443523E-1,2.4440609E-1,-2.0307212E-1,8.942937E-2,4.5119625E-2,4.5525068E-1,2.4591525E-1,5.1651764E-1,1.569301E-1,-6.625527E-2,-1.0174176E-1,1.4627892E-1,-5.710048E-2,1.14307016E-1,5.9979144E-2,1.8845098E-1,-3.8004425E-1,-7.259484E-1,-4.6180055E-1,-1.996408E-1,-1.9400835E-1,3.300166E-2,-1.6169989E-1,-3.9437494E-1,-1.11051604E-1,-1.8394575E0,2.2966728E-2,2.272433E-1,1.883239E-2,-3.430157E-1,3.4747902E-1,1.610101E-1,8.5251427E-1,5.379765E-1,2.6092482E-1,7.544185E-1,-8.476884E-1,1.22541115E-1,4.486714E-1,1.3026099E-1],"categories":[],"categories_nodes":[],"categories_segments":[],"categories_sizes":[],"default_left":[false,false,false,false,false,false,false,false,false,false,false,false,false,false,false,false,false,false,false,false,false,false,false,false,false,false,false,false,false,false,false,false,false,false,false,false,false,false,false,false,false,false,false,false,false,false,false,false,false,false,false,false,false,false,false,false,false,false,false,false,false,false,false,false,false,false,false,false,false,false,false,false,false,false,false,false,false,false,false,false,false,false,false,false,false,false,false,false,false,false,false,false,false,false,false,false,false,false,false,false,false,false,false,false,false,false,false,false,false,false,false,false,false,false,false,false,false,false,false,false,false,false,false,false,false,false,false],"id":8,"left_children":[1,3,5,7,9,11,13,15,17,19,21,23,25,27,29,31,33,35,37,39,41,43,45,47,49,51,53,55,57,59,61,63,65,67,69,71,73,75,77,79,81,83,85,87,89,91,93,95,97,99,101,103,105,107,109,111,113,115,117,119,121,123,125,-1,-1,-1,-1,-1,-1,-1,-1,-1,-1,-1,-1,-1,-1,-1,-1,-1,-1,-1,-1,-1,-1,-1,-1,-1,-1,-1,-1,-1,-1,-1,-1,-1,-1,-1,-1,-1,-1,-1,-1,-1,-1,-1,-1,-1,-1,-1,-1,-1,-1,-1,-1,-1,-1,-1,-1,-1,-1,-1,-1,-1,-1,-1,-1],"loss_changes":[4.6365806E5,8.24156E4,1.7872761E5,5.364441E4,5.0197445E4,1.500043E5,4.558815E4,1.8119377E4,1.3814406E4,1.1044687E4,4.295945E4,1.1511796E5,2.6766834E4,1.0986712E4,7.1083945E3,2.2789236E4,5.761583E3,5.8555034E3,8.1119634E3,3.3693728E3,6.977865E3,3.916256E4,1.0989463E4,5.6195637E4,7.501427E4,7.81692E3,2.829682E4,3.7502131E3,6.9515938E3,5.1124653E3,1.4921733E3,4.047611E3,9.104794E3,1.6823352E3,3.1032478E3,4.4757627E3,2.8344749E3,6.6403125E3,2.4751235E3,2.6313748E3,4.462435E3,5.05431E3,1.4116958E3,3.427461E4,4.8933305E4,7.1850713E3,3.6382234E3,4.5123137E4,3.8102992E4,3.2638021E4,5.2777727E4,2.3776406E3,3.0071343E3,2.577691E4,7.6169478E3,6.599442E3,2.111062E3,1.0307073E3,4.9975757E3,1.480087E3,2.0907847E3,9.399426E2,1.5252843E3,0E0,0E0,0E0,0E0,0E0,0E0,0E0,0E0,0E0,0E0,0E0,0E0,0E0,0E0,0E0,0E0,0E0,0E0,0E0,0E0,0E0,0E0,0E0,0E0,0E0,0E0,0E0,0E0,0E0,0E0,0E0,0E0,0E0,0E0,0E0,0E0,0E0,0E0,0E0,0E0,0E0,0E0,0E0,0E0,0E0,0E0,0E0,0E0,0E0,0E0,0E0,0E0,0E0,0E0,0E0,0E0,0E0,0E0,0E0,0E0,0E0,0E0,0E0,0E0],"parents":[2147483647,0,0,1,1,2,2,3,3,4,4,5,5,6,6,7,7,8,8,9,9,10,10,11,11,12,12,13,13,14,14,15,15,16,16,17,17,18,18,19,19,20,20,21,21,22,22,23,23,24,24,25,25,26,26,27,27,28,28,29,29,30,30,31,31,32,32,33,33,34,34,35,35,36,36,37,37,38,38,39,39,40,40,41,41,42,42,43,43,44,44,45,45,46,46,47,47,48,48,49,49,50,50,51,51,52,52,53,53,54,54,55,55,56,56,57,57,58,58,59,59,60,60,61,61,62,62],"right_children":[2,4,6,8,10,12,14,16,18,20,22,24,26,28,30,32,34,36,38,40,42,44,46,48,50,52,54,56,58,60,62,64,66,68,70,72,74,76,78,80,82,84,86,88,90,92,94,96,98,100,102,104,106,108,110,112,114,116,118,120,122,124,126,-1,-1,-1,-1,-1,-1,-1,-1,-1,-1,-1,-1,-1,-1,-1,-1,-1,-1,-1,-1,-1,-1,-1,-1,-1,-1,-1,-1,-1,-1,-1,-1,-1,-1,-1,-1,-1,-1,-1,-1,-1,-1,-1,-1,-1,-1,-1,-1,-1,-1,-1,-1,-1,-1,-1,-1,-1,-1,-1,-1,-1,-1,-1,-1],"split_conditions":[-2.5988942E-1,3.2374537E-1,4.9732324E-1,6.615923E-1,-8.3478224E-1,2.0820202E-2,7.8314656E-1,1.2059485E0,-6.7745924E-1,-9.920042E-1,9.9913704E-1,6.859838E-1,-2.262233E0,3.7354398E-1,1.4663319E-2,-1.6296912E0,2.7510086E-1,-7.453877E-1,-6.390279E-1,4.3001416E-1,4.541194E-1,-1.0578601E0,9.3891674E-1,9.445968E-1,4.3642408E-1,6.096936E-1,1.9264444E0,-7.5185156E-1,-9.962732E-1,1.1753721E0,-2.080262E0,8.229921E-1,-6.7745924E-1,-3.9459273E-1,3.169956E-2,8.023612E-3,1.381282E0,9.9979526E-1,1.1753721E0,-1.2038631E0,8.51928E-3,1.0503769E0,7.1848303E-1,-2.080262E0,9.2394006E-1,7.8314656E-1,9.999096E-1,-9.914152E-1,2.8650117E-1,-9.766555E-1,3.1089595E-1,2.3135372E-2,-2.080262E0,-2.080262E0,2.081434E0,3.98225E-1,5.5523556E-1,9.0373325E-1,1.8139958E-2,7.404674E-1,-2.3106264E-1,-2.262233E0,1.9227207E0,-9.6274085E-2,1.7996022E-2,-2.1219292E-1,-1.494586E-1,-3.5091263E-1,-1.18395954E-1,9.262179E-3,-1.21060014E-1,3.889434E-1,-1.1755274E-1,-1.954839E-2,2.2071643E-1,-3.7151475E-2,7.456757E-2,6.658182E-2,2.0984417E-1,-8.4506184E-2,-1.9955994E-1,1.1801282E0,-1.11382276E-1,-1.14972286E-1,-1.1450391E-2,-9.2309015E-3,1.3732585E-1,-1.0933057E-1,7.332183E-2,-6.0921635E-2,2.6828812E-2,1.3535888E-2,1.365752E-1,7.3774576E-2,1.549553E-1,4.7079034E-2,-1.9876583E-2,-3.0522529E-2,4.3883678E-2,-1.7130144E-2,3.4292106E-2,1.7993744E-2,5.6535296E-2,-1.1401328E-1,-2.1778452E-1,-1.3854016E-1,-5.989224E-2,-5.820251E-2,9.900499E-3,-4.850997E-2,-1.18312486E-1,-3.3315483E-2,-5.5183727E-1,6.8900185E-3,6.817299E-2,5.649717E-3,-1.02904715E-1,1.0424371E-1,4.8303034E-2,2.557543E-1,1.6139296E-1,7.827745E-2,2.2632556E-1,-2.5430652E-1,3.6762334E-2,1.3460143E-1,3.90783E-2],"split_indices":[1,3,3,2,1,8,2,5,1,6,7,1,4,0,8,5,3,6,6,3,3,5,0,7,2,0,4,0,6,2,5,7,1,0,9,8,5,7,2,5,9,5,2,5,5,2,7,5,3,6,3,8,5,5,5,6,2,1,8,7,0,4,5,0,0,0,0,0,0,0,0,0,0,0,0,0,0,0,0,0,0,0,0,0,0,0,0,0,0,0,0,0,0,0,0,0,0,0,0,0,0,0,0,0,0,0,0,0,0,0,0,0,0,0,0,0,0,0,0,0,0,0,0,0,0,0,0],"split_type":[0,0,0,0,0,0,0,0,0,0,0,0,0,0,0,0,0,0,0,0,0,0,0,0,0,0,0,0,0,0,0,0,0,0,0,0,0,0,0,0,0,0,0,0,0,0,0,0,0,0,0,0,0,0,0,0,0,0,0,0,0,0,0,0,0,0,0,0,0,0,0,0,0,0,0,0,0,0,0,0,0,0,0,0,0,0,0,0,0,0,0,0,0,0,0,0,0,0,0,0,0,0,0,0,0,0,0,0,0,0,0,0,0,0,0,0,0,0,0,0,0,0,0,0,0,0,0],"sum_hessian":[5.669397E7,7.0865285E6,4.960744E7,1.820083E6,5.2664455E6,4.714287E7,2.4645678E6,1.1696002E6,6.504828E5,6.2060606E5,4.6458395E6,4.2461588E7,4.6812845E6,1.6949852E6,7.695824E5,9.986678E5,1.7093242E5,2.398461E5,4.106367E5,2.3367955E5,3.869265E5,4.0291518E6,6.166876E5,1.1601815E7,3.0859772E7,3.685648E5,4.31272E6,2.3174453E5,1.4632408E6,6.213698E5,1.4821256E5,1.1404849E5,8.846193E5,5.538109E4,1.1555133E5,1.9587958E5,4.3966527E4,3.4704388E5,6.3592812E4,1.609637E5,7.271584E4,3.105968E5,7.632967E4,6.178676E5,3.4112842E6,4.1783753E5,1.9885012E5,6.4712555E6,5.1305595E6,4.4445505E6,2.641522E7,8.466934E4,2.8389547E5,3.4303315E6,8.823885E5,2.8951521E4,2.0279302E5,3.1706484E4,1.4315342E6,3.7538078E5,2.4598905E5,1.0759029E4,1.3745353E5,4.8653586E4,6.5394902E4,3.3532975E5,5.4928956E5,2.9579797E3,5.242311E4,9.5695555E4,1.9855771E4,1.5820524E3,1.9429752E5,3.898344E4,4.983085E3,2.8968038E5,5.73635E4,4.9707586E4,1.3885228E4,2.0504285E4,1.404594E5,2.4058846E2,7.247526E4,2.5986347E5,5.0733348E4,6.986833E4,6.4613467E3,1.1320162E5,5.0466603E5,2.6845068E6,7.267775E5,3.695401E5,4.8297434E4,1.0169861E5,9.7151516E4,1.0892006E6,5.382055E6,7.206372E5,4.409922E6,2.1879112E6,2.2566395E6,3.7221712E6,2.269305E7,3.1870668E4,5.2798676E4,5.4041824E4,2.2985364E5,6.0793706E5,2.8223942E6,7.067199E5,1.7566862E5,2.6542854E4,2.4086694E3,9.6706914E4,1.0608609E5,1.7173814E4,1.4532671E4,1.2694506E6,1.620837E5,1.5611781E4,3.59769E5,8.909076E3,2.3707997E5,1.1127903E3,9.646239E3,1.2025673E5,1.719681E4],"tree_param":{"num_deleted":"0","num_feature":"10","num_nodes":"127","size_leaf_vector":"0"}},{"base_weights":[5.701639E-2,-5.40188E-2,9.717258E-2,-2.2351208E-1,-1.8691355E-2,2.0095496E-1,6.925615E-2,-4.696063E-1,-1.7426822E-1,-3.5359144E-1,6.8187434E-4,1.8011719E-1,4.759981E-1,-3.1271994E-3,1.0211261E-1,-5.585586E-1,-2.3308133E-1,-3.2232472E-1,-8.645642E-2,-6.066226E-1,-2.1960047E-1,-2.6892602E-1,1.946737E-2,2.341118E-1,1.1244003E-1,3.071354E-1,5.846037E-1,9.43857E-3,-1.5619335E-1,7.002364E-2,2.191183E-1,2.17172E0,-5.665811E-1,-8.089646E-1,-1.8691671E-1,-3.9418364E-1,-1.590965E-1,-1.2929475E-1,1.1474506E-1,-9.022929E-1,-4.8872507E-1,-4.5089695E-1,-1.5344463E-1,-1.6390103E-1,-4.622425E-1,2.0283473E-1,-2.1782346E-2,1.0325186E-1,3.0396882E-1,4.9960017E-3,1.9888942E-1,-4.208235E-3,3.6639208E-1,2.0227642E-1,6.020249E-1,-1.8968916E-1,1.7994978E-2,-1.2613499E-1,-3.6737406E-1,-5.683161E-2,8.727882E-2,4.9186625E-2,2.5635847E-1,5.933546E0,1.9295508E-1,-6.6092813E-1,-3.440147E-1,1.0831844E0,-8.735305E-1,1.0869681E-1,-2.8214368E-1,-4.9150157E-1,-2.6356703E-1,6.615241E-2,-2.5842282E-1,-2.5620565E-1,-6.594655E-2,-3.113811E-1,1.6499622E-1,-9.988404E-1,-4.6629632E-1,-3.9636096E-1,-7.0605713E-1,-5.5858856E-1,-2.1737385E-1,-2.0523438E-1,1.4378941E-1,-4.6379817E-1,-8.073475E-2,-7.1644765E-1,-3.856706E-1,-2.5914852E-2,2.3771635E-1,-8.9514695E-2,1.2408944E-1,2.7024474E-2,2.6451343E-1,4.5098594E-1,2.7113885E-1,8.0664024E-2,-1.1571438E-1,3.195101E-1,1.72961E-1,-2.304989E0,1.573464E-2,2.0073932E-1,4.3408436E-1,-2.1394854E0,2.5594965E-1,5.1265633E-1,6.6222095E-1,-6.3275814E-2,-2.400099E-1,-5.402049E-2,4.266971E-2,-1.9411102E-1,-3.604943E-2,-4.9971345E-1,-1.6974999E-1,5.1338412E-2,-9.6973225E-2,1.48530295E-2,1.16772115E-1,-2.2062361E-1,9.2489764E-2,2.3715198E-1,4.9366885E-1],"categories":[],"categories_nodes":[],"categories_segments":[],"categories_sizes":[],"default_left":[false,false,false,false,false,false,false,false,false,false,false,false,false,false,false,false,false,false,false,false,false,false,false,false,false,false,false,false,false,false,false,false,false,false,false,false,false,false,false,false,false,false,false,false,false,false,false,false,false,false,false,false,false,false,false,false,false,false,false,false,false,false,false,false,false,false,false,false,false,false,false,false,false,false,false,false,false,false,false,false,false,false,false,false,false,false,false,false,false,false,false,false,false,false,false,false,false,false,false,false,false,false,false,false,false,false,false,false,false,false,false,false,false,false,false,false,false,false,false,false,false,false,false,false,false,false,false],"id":9,"left_children":[1,3,5,7,9,11,13,15,17,19,21,23,25,27,29,31,33,35,37,39,41,43,45,47,49,51,53,55,57,59,61,63,65,67,69,71,73,75,77,79,81,83,85,87,89,91,93,95,97,99,101,103,105,107,109,111,113,115,117,119,121,123,125,-1,-1,-1,-1,-1,-1,-1,-1,-1,-1,-1,-1,-1,-1,-1,-1,-1,-1,-1,-1,-1,-1,-1,-1,-1,-1,-1,-1,-1,-1,-1,-1,-1,-1,-1,-1,-1,-1,-1,-1,-1,-1,-1,-1,-1,-1,-1,-1,-1,-1,-1,-1,-1,-1,-1,-1,-1,-1,-1,-1,-1,-1,-1,-1],"loss_changes":[2.47071E5,8.812493E4,1.1790325E5,3.0762727E4,7.901873E4,4.943921E4,7.6268195E4,8.904966E3,2.7500123E4,2.2579965E4,5.8310246E4,2.930195E4,1.1141232E4,1.9257195E4,8.281427E4,6.738373E3,3.0751746E3,9.236567E3,1.1443986E4,8.037178E3,6.662678E3,1.5226018E4,8.141041E4,4.0773016E4,3.305288E4,4.3870674E3,2.4624329E3,1.5764614E4,4.8215327E3,3.7889207E4,3.0041533E4,6.7082007E3,6.439603E3,1.0497059E3,3.014755E3,6.9500327E3,5.385435E3,8.800678E3,4.9908516E3,2.766406E3,3.3088105E3,2.4353132E3,5.212121E3,1.21199795E4,5.1384897E3,1.5771477E4,8.681279E4,1.9082027E4,1.4035038E4,1.4491773E4,6.1670596E3,1.7446638E3,2.2400203E3,2.0259187E3,1.9019371E3,2.4248538E3,1.5764012E4,4.0718123E3,2.475136E3,8.999404E3,3.2547455E4,9.970032E3,1.7747688E4,0E0,0E0,0E0,0E0,0E0,0E0,0E0,0E0,0E0,0E0,0E0,0E0,0E0,0E0,0E0,0E0,0E0,0E0,0E0,0E0,0E0,0E0,0E0,0E0,0E0,0E0,0E0,0E0,0E0,0E0,0E0,0E0,0E0,0E0,0E0,0E0,0E0,0E0,0E0,0E0,0E0,0E0,0E0,0E0,0E0,0E0,0E0,0E0,0E0,0E0,0E0,0E0,0E0,0E0,0E0,0E0,0E0,0E0,0E0,0E0,0E0,0E0,0E0,0E0],"parents":[2147483647,0,0,1,1,2,2,3,3,4,4,5,5,6,6,7,7,8,8,9,9,10,10,11,11,12,12,13,13,14,14,15,15,16,16,17,17,18,18,19,19,20,20,21,21,22,22,23,23,24,24,25,25,26,26,27,27,28,28,29,29,30,30,31,31,32,32,33,33,34,34,35,35,36,36,37,37,38,38,39,39,40,40,41,41,42,42,43,43,44,44,45,45,46,46,47,47,48,48,49,49,50,50,51,51,52,52,53,53,54,54,55,55,56,56,57,57,58,58,59,59,60,60,61,61,62,62],"right_children":[2,4,6,8,10,12,14,16,18,20,22,24,26,28,30,32,34,36,38,40,42,44,46,48,50,52,54,56,58,60,62,64,66,68,70,72,74,76,78,80,82,84,86,88,90,92,94,96,98,100,102,104,106,108,110,112,114,116,118,120,122,124,126,-1,-1,-1,-1,-1,-1,-1,-1,-1,-1,-1,-1,-1,-1,-1,-1,-1,-1,-1,-1,-1,-1,-1,-1,-1,-1,-1,-1,-1,-1,-1,-1,-1,-1,-1,-1,-1,-1,-1,-1,-1,-1,-1,-1,-1,-1,-1,-1,-1,-1,-1,-1,-1,-1,-1,-1,-1,-1,-1,-1,-1,-1,-1,-1],"split_conditions":[3.9864746E-1,-6.7226624E-1,9.100614E-3,3.010899E-1,-2.4206884E-1,-1.00205034E-1,-9.883328E-1,-8.7970304E-1,-9.9100167E-1,4.8855802E-1,-1.7954055E0,8.4597594E-1,8.987744E-1,1.8028673E0,4.4637185E-1,7.780983E-3,-8.139995E-2,4.293998E-1,-7.23622E-1,-7.505646E-1,-7.505646E-1,-8.3305347E-1,-8.839617E-1,-9.9401176E-1,-8.901738E-1,6.144452E-1,6.996499E-2,-2.0808692E0,4.6797422E-1,2.808055E-1,3.7714398E-1,6.3983274E-1,6.8542236E-1,1.2451135E-2,-8.839617E-1,8.7169486E-1,5.0702935E-1,-8.281483E-1,-1.4207058E0,2.1090756E-1,2.0909553E-2,6.144452E-1,9.997815E-1,-2.0898302E0,2.7490303E-1,-2.0898302E0,7.722225E-1,5.3384376E-1,7.780983E-3,9.8931694E-1,7.780983E-3,4.4977894E-1,4.6797422E-1,2.692413E-1,1.1564707E0,1.7461699E-2,4.4991797E-1,9.150198E-1,-9.9688196E-1,8.1951153E-1,7.338228E-1,-7.505646E-1,8.987744E-1,1.7800639E0,5.7886526E-2,-1.9827844E-1,-1.03204414E-1,3.249553E-1,-2.6205915E-1,3.2609046E-2,-8.464311E-2,-1.4745048E-1,-7.907011E-2,1.9845724E-2,-7.752685E-2,-7.6861694E-2,-1.9783966E-2,-9.341434E-2,4.9498867E-2,-2.9965213E-1,-1.398889E-1,-1.1890829E-1,-2.1181715E-1,-1.6757658E-1,-6.521216E-2,-6.1570317E-2,4.3136824E-2,-1.3913946E-1,-2.4220427E-2,-2.149343E-1,-1.1570118E-1,-7.774456E-3,7.131491E-2,-2.6854409E-2,3.7226833E-2,8.107343E-3,7.935403E-2,1.352958E-1,8.1341654E-2,2.4199208E-2,-3.4714315E-2,9.585304E-2,5.1888302E-2,-6.9149673E-1,4.7203926E-3,6.02218E-2,1.3022532E-1,-6.4184564E-1,7.6784894E-2,1.5379691E-1,1.9866629E-1,-1.8982746E-2,-7.200298E-2,-1.6206147E-2,1.2800913E-2,-5.823331E-2,-1.0814829E-2,-1.4991404E-1,-5.0924998E-2,1.54015245E-2,-2.909197E-2,4.455909E-3,3.5031635E-2,-6.618708E-2,2.774693E-2,7.1145594E-2,1.4810066E-1],"split_indices":[1,1,8,3,0,6,6,6,6,2,4,7,2,4,3,8,0,3,6,0,0,5,5,6,6,2,0,4,3,3,0,2,2,8,5,7,2,1,4,1,8,2,7,5,3,5,5,2,8,7,8,1,3,3,2,8,2,1,6,7,0,0,2,0,0,0,0,0,0,0,0,0,0,0,0,0,0,0,0,0,0,0,0,0,0,0,0,0,0,0,0,0,0,0,0,0,0,0,0,0,0,0,0,0,0,0,0,0,0,0,0,0,0,0,0,0,0,0,0,0,0,0,0,0,0,0,0],"split_type":[0,0,0,0,0,0,0,0,0,0,0,0,0,0,0,0,0,0,0,0,0,0,0,0,0,0,0,0,0,0,0,0,0,0,0,0,0,0,0,0,0,0,0,0,0,0,0,0,0,0,0,0,0,0,0,0,0,0,0,0,0,0,0,0,0,0,0,0,0,0,0,0,0,0,0,0,0,0,0,0,0,0,0,0,0,0,0,0,0,0,0,0,0,0,0,0,0,0,0,0,0,0,0,0,0,0,0,0,0,0,0,0,0,0,0,0,0,0,0,0,0,0,0,0,0,0,0],"sum_hessian":[5.5412612E7,1.4717501E7,4.0695108E7,2.538471E6,1.217903E7,8.626215E6,3.2068894E7,4.232563E5,2.1152148E6,6.6600225E5,1.1513027E7,8.018705E6,6.075099E5,1.0012091E7,2.2056804E7,3.0758022E5,1.1567609E5,7.8747575E5,1.327739E6,2.3057545E5,4.3542675E5,7.499398E5,1.0763088E7,4.4602215E6,3.5584838E6,2.3779077E5,3.697191E5,9.252518E6,7.595727E5,1.730962E7,4.7471845E6,9.0033704E2,3.0667988E5,8.583553E3,1.0709254E5,5.4676775E5,2.4070803E5,1.0946702E6,2.3306875E5,6.572922E4,1.6484623E5,9.68412E4,3.3858556E5,4.859401E5,2.639997E5,1.9765824E6,8.786505E6,1.5523245E6,2.9078968E6,1.5865872E6,1.9718964E6,3.8021414E4,1.9976934E5,1.6113033E4,3.5360606E5,3.8119497E5,8.871323E6,6.6493144E5,9.4641234E4,2.072581E6,1.5237038E7,8.5333056E5,3.893854E6,3.0965466E2,5.9068243E2,2.1537806E5,9.130182E4,2.827116E2,8.300841E3,2.6092705E4,8.0999836E4,3.1332056E5,2.3344717E5,7.366144E4,1.670466E5,3.6447766E5,7.3019256E5,2.4584951E4,2.084838E5,5.38118E4,1.191742E4,1.1568431E5,4.9161926E4,6.627595E4,3.0565246E4,2.8834494E5,5.024061E4,1.0550068E5,3.804394E5,6.111161E4,2.0288808E5,2.6152602E5,1.7150564E6,6.000367E6,2.786138E6,1.0540721E6,4.9825244E5,5.308159E5,2.377081E6,9.7524775E5,6.1133956E5,3.4887862E5,1.6230178E6,3.2574808E2,3.7695668E4,5.7953285E4,1.4181606E5,3.6016528E2,1.5752868E4,1.4232145E5,2.112846E5,1.08536664E5,2.726583E5,2.2639055E6,6.6074175E6,3.7897012E5,2.859613E5,5.668229E4,3.7958945E4,5.60959E5,1.511622E6,4.4092865E6,1.0827752E7,1.1801386E5,7.3531675E5,3.6023068E6,2.915473E5],"tree_param":{"num_deleted":"0","num_feature":"10","num_nodes":"127","size_leaf_vector":"0"}}]},"name":"gbtree"},"learner_model_param":{"base_score":"5E-1","num_class":"0","num_feature":"10"},"objective":{"name":"binary:logistic","reg_loss_param":{"scale_pos_weight":"1"}}},"version":[1,4,2]}
